3.440280854701995850e-01
4.576220735907554626e-02
-1.890513449907302856e-01
-8.992887288331985474e-02
-3.253978788852691650e-01
-4.013220667839050293e-01
-3.257068097591400146e-01
-5.410823971033096313e-02
-1.478560715913772583e-01
-2.299294620752334595e-01
1.152840852737426758e-01
2.721536159515380859e-01
2.080325484275817871e-01
-1.147169396281242371e-01
-2.004538029432296753e-01
-3.078033402562141418e-02
1.298319548368453979e-01
9.044433385133743286e-02
1.791824847459793091e-01
1.202290728688240051e-01
-1.446737498044967651e-01
-4.845896735787391663e-02
2.472762316465377808e-01
-7.840549200773239136e-02
-7.784704864025115967e-02
7.516236603260040283e-02
-1.015492156147956848e-01
-1.243445575237274170e-01
-1.074831858277320862e-01
-1.585830748081207275e-01
-1.734648197889328003e-01
5.431652441620826721e-02
2.411601096391677856e-01
-1.549197882413864136e-01
-3.178213238716125488e-01
-1.003491319715976715e-02
-1.837923228740692139e-01
-1.430227607488632202e-01
1.032328009605407715e-01
1.166003495454788208e-01
5.839842371642589569e-03
1.618935912847518921e-02
-1.550947874784469604e-01
-2.422136515378952026e-01
5.140360817313194275e-02
-1.574837267398834229e-01
-3.722649067640304565e-02
-5.698603391647338867e-02
-5.340634286403656006e-02
-1.539858877658843994e-01
-6.288118194788694382e-03
6.750113330781459808e-03
-2.437253445386886597e-01
-9.851002693176269531e-02
6.481388211250305176e-02
1.700024753808975220e-01
1.055970415472984314e-01
-1.868576258420944214e-01
-1.313474923372268677e-01
-3.348914533853530884e-02
-2.148431092500686646e-01
-6.588275730609893799e-02
-2.533519864082336426e-01
4.367728903889656067e-02
1.245674639940261841e-01
-2.068385779857635498e-01
2.065314799547195435e-01
8.912912756204605103e-02
2.083149999380111694e-01
1.702821403741836548e-01
3.311691582202911377e-01
2.514114975929260254e-01
1.445091664791107178e-01
1.279178559780120850e-01
1.969682872295379639e-01
1.859336048364639282e-01
9.651943296194076538e-02
6.881744414567947388e-02
2.455449700355529785e-01
-6.754925847053527832e-02
1.140708178281784058e-01
2.515620589256286621e-01
3.342459499835968018e-01
-8.880003541707992554e-02
-4.309065639972686768e-02
1.306836605072021484e-01
2.368701994419097900e-01
6.179379299283027649e-02
8.423750847578048706e-02
2.540039420127868652e-01
1.229408234357833862e-01
1.511853784322738647e-01
1.681521981954574585e-01
-1.422070115804672241e-01
1.285883337259292603e-01
8.217822760343551636e-02
-9.857668541371822357e-03
-1.634657233953475952e-01
-1.673496365547180176e-01
-1.777077317237854004e-01
-4.263209551572799683e-02
-1.966727375984191895e-01
-8.411548286676406860e-02
1.290409862995147705e-01
-8.447752334177494049e-03
2.389918416738510132e-01
1.429761797189712524e-01
-1.076322048902511597e-01
2.067730575799942017e-01
-1.426659077405929565e-01
-3.421268984675407410e-02
9.977784007787704468e-02
7.440100610256195068e-02
-3.592904284596443176e-02
4.980903118848800659e-02
1.147119849920272827e-01
-1.605280190706253052e-01
1.797245144844055176e-01
5.172105878591537476e-02
-1.316155958920717239e-02
-9.469757229089736938e-02
-2.070577293634414673e-01
-1.027429252862930298e-01
1.953201144933700562e-01
1.671557873487472534e-01
3.363685309886932373e-01
3.215450048446655273e-01
-2.232677638530731201e-01
-9.975332766771316528e-02
1.325490772724151611e-01
1.144162118434906006e-01
1.002907752990722656e-01
6.839634478092193604e-02
6.184864789247512817e-02
2.247895449399948120e-01
9.770686924457550049e-02
-1.228748783469200134e-01
1.738598048686981201e-01
6.665407121181488037e-02
-1.049682945013046265e-01
1.409222930669784546e-01
2.432439029216766357e-01
6.259060651063919067e-02
-1.812624633312225342e-01
-5.372495576739311218e-02
1.132478490471839905e-01
-2.018412798643112183e-01
-3.018698394298553467e-01
-2.656445205211639404e-01
-1.033555418252944946e-01
1.199789568781852722e-01
-1.280306577682495117e-01
6.580627709627151489e-02
-2.133139222860336304e-02
-1.626866757869720459e-01
-5.688011646270751953e-01
-2.101240009069442749e-01
2.898785173892974854e-01
2.614780068397521973e-01
2.316627204418182373e-01
-1.413643658161163330e-01
-4.547720551490783691e-01
4.751804769039154053e-01
-5.162045359611511230e-02
1.953260600566864014e-01
7.430786639451980591e-02
-2.006274834275245667e-02
-1.234605014324188232e-01
-1.134454179555177689e-02
-2.705620042979717255e-02
1.342818439006805420e-01
3.978057205677032471e-01
1.630065441131591797e-01
1.136277057230472565e-02
-4.122274518013000488e-01
-2.101169079542160034e-01
4.035797342658042908e-02
-2.186161875724792480e-01
3.433258533477783203e-01
3.378544151782989502e-01
5.942335352301597595e-02
-1.649141609668731689e-01
-1.323647499084472656e-01
9.287248551845550537e-02
2.571263909339904785e-01
1.508931629359722137e-02
-1.136951744556427002e-01
1.328045725822448730e-01
1.470928341150283813e-01
3.882859051227569580e-01
2.245783805847167969e-01
-3.008547425270080566e-02
-3.278895467519760132e-02
1.973725706338882446e-01
1.223799400031566620e-02
3.959086723625659943e-03
1.262544691562652588e-01
-1.150162592530250549e-01
-2.398749887943267822e-01
-8.854210376739501953e-02
-2.223031967878341675e-01
4.592525362968444824e-01
3.413122594356536865e-01
1.680118888616561890e-01
-6.728855520486831665e-02
1.140791699290275574e-01
-1.045682877302169800e-01
-2.056295573711395264e-01
-7.811531424522399902e-02
4.023420214653015137e-01
2.013536840677261353e-01
4.520872607827186584e-02
7.854724675416946411e-02
-1.286588013172149658e-01
-1.067453064024448395e-02
-2.703634202480316162e-01
-2.509217858314514160e-01
2.012098282575607300e-01
1.199112311005592346e-01
9.834584593772888184e-02
5.961324647068977356e-02
3.570110350847244263e-02
-2.763049602508544922e-01
-2.520714998245239258e-01
1.831694245338439941e-01
-1.621626019477844238e-01
-2.257681936025619507e-01
7.012533396482467651e-02
-1.657442301511764526e-01
-1.249915584921836853e-01
-5.090878903865814209e-02
-7.010558992624282837e-02
3.502522408962249756e-02
-4.809159412980079651e-02
-5.466786772012710571e-02
1.094010099768638611e-01
1.154039502143859863e-01
2.006298601627349854e-01
-3.819376230239868164e-02
-3.155141472816467285e-01
-2.052700817584991455e-01
-8.286429196596145630e-02
-2.806271612644195557e-01
-4.572544246912002563e-02
1.243528649210929871e-01
3.789089247584342957e-02
3.598371446132659912e-01
-4.688866063952445984e-02
2.379366308450698853e-01
-2.920108735561370850e-01
4.756171256303787231e-02
-8.516575396060943604e-02
-2.092797458171844482e-01
4.922180250287055969e-02
6.058921813964843750e-01
-1.384007036685943604e-01
2.921727299690246582e-01
-5.506705865263938904e-02
-1.116718053817749023e-01
-2.806817889213562012e-01
-2.567809522151947021e-01
-3.554337322711944580e-01
2.032665163278579712e-02
-1.997352987527847290e-01
6.994399428367614746e-02
-1.671881601214408875e-02
1.254655867815017700e-01
-1.046815607696771622e-02
1.486462503671646118e-01
-2.384709753096103668e-02
7.001355290412902832e-02
-2.336780577898025513e-01
6.263874769210815430e-01
-7.274559233337640762e-03
-4.078183323144912720e-02
4.006006941199302673e-02
3.054143115878105164e-02
2.188075184822082520e-01
1.761422306299209595e-01
-3.033809363842010498e-01
2.096819579601287842e-01
1.382306069135665894e-01
2.694043889641761780e-02
1.631412059068679810e-01
3.016459383070468903e-02
2.941568009555339813e-02
2.300264984369277954e-01
1.617895662784576416e-01
1.792998909950256348e-01
-6.590771488845348358e-03
2.621053457260131836e-01
1.007084250450134277e-01
1.110461279749870300e-01
3.078144043684005737e-03
1.275663375854492188e-01
1.880184262990951538e-01
1.987005323171615601e-01
2.321902364492416382e-01
7.280842214822769165e-02
2.531372904777526855e-01
7.013664580881595612e-03
-7.869426906108856201e-02
-1.465117484331130981e-01
2.104208916425704956e-01
-1.928945481777191162e-01
1.721662352792918682e-03
2.811572849750518799e-01
2.971362136304378510e-02
-9.359604865312576294e-02
7.099090516567230225e-02
2.465443499386310577e-02
2.272075265645980835e-01
-1.245488300919532776e-01
4.304790496826171875e-02
-1.012539118528366089e-01
-8.410043269395828247e-02
-1.087430864572525024e-01
-1.453890204429626465e-01
-4.541186615824699402e-02
-1.566867381334304810e-01
3.495528921484947205e-02
9.950101375579833984e-02
-2.579792961478233337e-02
8.377692848443984985e-02
1.065537407994270325e-01
7.826315611600875854e-02
9.138315171003341675e-02
-1.727460026741027832e-01
-1.020962148904800415e-01
-8.974256366491317749e-02
-2.893644273281097412e-01
-1.585297435522079468e-01
-2.431055605411529541e-01
1.390919368714094162e-02
-9.233007207512855530e-03
-2.065727859735488892e-01
-1.098172739148139954e-01
1.853953450918197632e-01
4.008854553103446960e-02
2.323832130059599876e-03
1.186621338129043579e-01
2.346933931112289429e-01
1.476099062711000443e-02
-6.447763741016387939e-02
-1.945931464433670044e-01
-3.925825655460357666e-02
4.066714346408843994e-01
3.636371493339538574e-01
2.441063821315765381e-01
8.185721188783645630e-02
4.075638577342033386e-02
-1.806939765810966492e-02
1.761951148509979248e-01
2.867143414914608002e-02
1.120169684290885925e-01
3.210198283195495605e-01
3.720060586929321289e-01
1.071637794375419617e-01
2.160569466650485992e-02
7.410558313131332397e-02
-2.391511201858520508e-01
-1.280976179987192154e-02
1.047097444534301758e-01
5.896919220685958862e-02
4.198495298624038696e-03
-6.332175433635711670e-02
1.079347543418407440e-02
-3.757246956229209900e-02
-1.040652990341186523e-01
-1.643369793891906738e-01
-2.839043363928794861e-02
-1.072557419538497925e-01
-1.640944480895996094e-01
9.004415012896060944e-03
-6.542508304119110107e-02
-1.072836965322494507e-01
-2.596051245927810669e-02
-3.762443065643310547e-01
-1.658875197172164917e-01
-4.125733077526092529e-01
-3.667268529534339905e-02
-8.997436612844467163e-02
-8.434976637363433838e-02
-1.303374618291854858e-01
-2.267829775810241699e-01
-1.777857989072799683e-01
-2.044660598039627075e-01
-2.357549667358398438e-01
-3.062303960323333740e-01
-1.917341351509094238e-01
-4.927827417850494385e-01
-2.773550450801849365e-01
-1.336230933666229248e-01
-2.213537395000457764e-01
-5.302598327398300171e-02
-1.042994260787963867e-01
-1.038928255438804626e-01
-8.583698421716690063e-02
-2.097311913967132568e-01
-2.329782843589782715e-01
-1.630343198776245117e-01
-1.133301556110382080e-01
5.208060890436172485e-02
-5.702373757958412170e-02
-1.991848498582839966e-01
-2.304632812738418579e-01
-8.253768086433410645e-02
7.077918946743011475e-02
6.481237709522247314e-02
9.731645695865154266e-03
-2.083329856395721436e-01
2.738504204899072647e-03
-1.572155505418777466e-01
-5.651666969060897827e-02
-1.550027877092361450e-01
2.244074791669845581e-01
1.765276044607162476e-01
-4.962726682424545288e-02
-3.465199097990989685e-02
1.438295394182205200e-01
2.497712522745132446e-01
-5.037045851349830627e-02
-9.747442789375782013e-03
-2.242101877927780151e-01
-6.831219792366027832e-02
-2.460404783487319946e-01
-4.927755147218704224e-02
2.394196540117263794e-01
2.009392827749252319e-01
2.832995057106018066e-01
-1.905284970998764038e-01
-3.586053848266601562e-01
-3.322417661547660828e-02
-2.570418417453765869e-01
-3.972959890961647034e-02
-1.323072314262390137e-01
1.501585245132446289e-01
3.257617652416229248e-01
5.960756167769432068e-02
2.764165773987770081e-02
-1.328215468674898148e-02
-1.717727482318878174e-01
-1.320649683475494385e-01
-1.781040579080581665e-01
-2.141107618808746338e-02
-1.262094527482986450e-01
-4.840599000453948975e-02
-5.319225043058395386e-02
2.444568574428558350e-01
2.842206880450248718e-02
1.155080273747444153e-02
4.420552030205726624e-02
4.820024222135543823e-02
-2.514851987361907959e-01
-2.196878939867019653e-01
5.583113431930541992e-01
-5.510150920599699020e-03
9.529511630535125732e-02
-1.205218434333801270e-01
-5.362340435385704041e-02
2.539274692535400391e-01
4.591561853885650635e-02
-1.544726639986038208e-01
1.963735520839691162e-01
-2.112424522638320923e-01
-4.975686781108379364e-03
-1.126854568719863892e-01
1.377719193696975708e-01
7.085827738046646118e-02
3.948915600776672363e-01
2.058781385421752930e-01
-5.198557302355766296e-02
6.542967259883880615e-02
2.804003059864044189e-01
9.376089274883270264e-02
-7.945163547992706299e-02
-1.899789273738861084e-02
3.176719183102250099e-03
1.412184983491897583e-01
-1.711728749796748161e-03
4.627305641770362854e-02
7.466205209493637085e-02
-1.582211107015609741e-01
-8.453960716724395752e-02
3.011374920606613159e-02
1.312634348869323730e-01
-2.016922682523727417e-01
1.601371169090270996e-01
3.050263822078704834e-01
-1.311763972043991089e-01
-3.354692459106445312e-01
6.402561068534851074e-02
2.715049386024475098e-01
6.008381396532058716e-02
-4.501037299633026123e-02
4.762473404407501221e-01
2.171706221997737885e-02
-5.933485180139541626e-02
1.253790110349655151e-01
1.543990969657897949e-01
1.831723153591156006e-01
1.119939386844635010e-01
3.284265995025634766e-01
-2.372968047857284546e-01
-1.051010787487030029e-01
-1.069329306483268738e-02
-5.226062983274459839e-02
1.291502416133880615e-01
-6.656266003847122192e-02
2.353486716747283936e-01
2.220123559236526489e-01
6.586599349975585938e-02
-1.451077014207839966e-01
-6.457408666610717773e-01
-5.105761438608169556e-02
1.743126288056373596e-02
1.675621271133422852e-01
2.075142860412597656e-01
2.507718503475189209e-01
-8.292838931083679199e-02
5.031088367104530334e-03
-2.224856317043304443e-01
-2.444596588611602783e-01
-4.173792526125907898e-02
1.946232169866561890e-01
2.417348027229309082e-01
2.141524702310562134e-01
1.904143840074539185e-01
-4.679014086723327637e-01
-3.024051487445831299e-01
-1.030256748199462891e-01
-3.403848409652709961e-02
3.346069157123565674e-01
4.526209831237792969e-01
1.231690719723701477e-01
1.578622460365295410e-01
-1.669738888740539551e-01
-2.928086519241333008e-01
-3.787056729197502136e-02
3.181547522544860840e-01
8.191064745187759399e-02
1.591632664203643799e-01
8.983161300420761108e-02
1.920016668736934662e-02
-1.358665376901626587e-01
1.838211715221405029e-01
-3.414363041520118713e-02
-4.632764961570501328e-03
2.567967474460601807e-01
1.979401111602783203e-01
5.977487564086914062e-02
4.343980923295021057e-02
-1.365084946155548096e-01
-7.110351580195128918e-04
4.306182730942964554e-03
-7.478044182062149048e-02
1.330474670976400375e-02
1.389988660812377930e-01
2.907879352569580078e-01
8.550556749105453491e-02
-6.684317486360669136e-04
7.616549730300903320e-02
8.436573296785354614e-02
1.631945669651031494e-01
-5.620045587420463562e-03
-8.247933350503444672e-03
1.961684525012969971e-01
-1.980653963983058929e-02
2.662073820829391479e-02
6.399078667163848877e-02
-1.223523318767547607e-01
1.177786514163017273e-01
2.070217877626419067e-01
2.673962414264678955e-01
-3.599104285240173340e-02
2.638485841453075409e-02
8.547350764274597168e-02
-6.087335944175720215e-02
4.303169995546340942e-02
1.150020286440849304e-01
2.057863585650920868e-02
5.846963822841644287e-02
8.426106721162796021e-02
-7.115698605775833130e-02
-1.297672837972640991e-01
4.452790319919586182e-02
-7.699658721685409546e-02
2.235617190599441528e-01
6.854505091905593872e-02
-2.024565786123275757e-01
-3.212446346879005432e-02
3.363617956638336182e-01
-2.308943867683410645e-01
4.885685816407203674e-02
-5.395982041954994202e-02
1.841937378048896790e-02
9.693604893982410431e-03
-2.524455487728118896e-01
5.927155539393424988e-02
6.971727125346660614e-03
-4.027398228645324707e-01
1.300521194934844971e-01
1.889847517013549805e-01
3.219074010848999023e-01
3.137151598930358887e-01
2.431574463844299316e-01
-1.022400483489036560e-01
-4.009507000446319580e-01
-4.316748380661010742e-01
-8.557058870792388916e-02
1.831235140562057495e-01
1.417872160673141479e-01
1.024869456887245178e-01
6.353411078453063965e-02
1.494379341602325439e-01
-2.655421793460845947e-01
4.929279163479804993e-02
1.484412103891372681e-01
-1.792471408843994141e-01
1.011497750878334045e-01
-1.368346959352493286e-01
-1.859168894588947296e-02
1.729989796876907349e-01
-2.155272662639617920e-01
7.337997853755950928e-02
-1.324726790189743042e-01
-1.192106492817401886e-02
-1.133310794830322266e-01
-2.004978954792022705e-01
6.143260002136230469e-02
1.050168573856353760e-01
-2.463334798812866211e-01
1.395187824964523315e-01
-1.496598720550537109e-01
-7.891294360160827637e-02
-4.247314855456352234e-02
-6.180835887789726257e-02
6.809733808040618896e-02
2.144301384687423706e-01
8.196481317281723022e-02
-6.519976258277893066e-02
-6.387443840503692627e-02
-3.885151818394660950e-02
-4.779827594757080078e-02
-1.831644624471664429e-01
-1.126999408006668091e-01
-4.497092366218566895e-01
-1.465364843606948853e-01
-1.429592669010162354e-01
1.369414031505584717e-01
2.043073773384094238e-01
3.475887328386306763e-02
2.802224084734916687e-02
1.609625965356826782e-01
-2.529772222042083740e-01
-1.698598563671112061e-01
1.054781079292297363e-01
1.811416000127792358e-01
-1.466167122125625610e-01
6.426046043634414673e-02
4.358274117112159729e-02
-2.093631476163864136e-01
-2.235656417906284332e-02
-5.514852330088615417e-02
7.884885370731353760e-02
3.581822514533996582e-01
2.108579501509666443e-02
-4.612012766301631927e-03
-2.055452316999435425e-01
-1.053893566131591797e-02
7.249958068132400513e-02
-2.755782194435596466e-02
-3.673574700951576233e-02
-1.817953586578369141e-02
-1.603404134511947632e-01
2.321049757301807404e-02
-3.288475796580314636e-02
2.116975188255310059e-02
7.428972749039530754e-04
-2.949921190738677979e-01
-1.772319227457046509e-01
-3.474846780300140381e-01
-1.985316164791584015e-02
1.846982166171073914e-02
-5.531006678938865662e-02
-6.506927311420440674e-02
-1.079043596982955933e-01
5.793466791510581970e-02
-1.983994394540786743e-01
-2.477447092533111572e-01
4.961045924574136734e-03
2.203918993473052979e-01
2.523930743336677551e-02
1.332911550998687744e-01
1.508472859859466553e-01
4.784273356199264526e-02
-1.655036062002182007e-01
1.147799566388130188e-01
1.232809871435165405e-01
3.221645355224609375e-01
1.656439900398254395e-01
-2.833556756377220154e-02
-4.923119768500328064e-02
2.997346520423889160e-01
1.649283990263938904e-02
-2.631257474422454834e-01
-2.737822234630584717e-01
-1.739083789288997650e-02
-3.127848356962203979e-02
-8.263918012380599976e-02
-5.239872634410858154e-02
1.807599700987339020e-02
2.477724999189376831e-01
-1.218251287937164307e-01
-1.656839549541473389e-01
-1.871989369392395020e-01
-2.587372623383998871e-02
1.339708361774682999e-02
-8.703672885894775391e-02
4.681657627224922180e-02
-1.669376343488693237e-02
-4.069207981228828430e-02
-2.204679325222969055e-02
-2.910172641277313232e-01
-7.416501641273498535e-02
-2.619210779666900635e-01
3.922424465417861938e-02
1.919352561235427856e-01
7.322608679533004761e-02
-1.025642734020948410e-02
1.218610256910324097e-01
-4.872417077422142029e-02
-4.527043923735618591e-02
6.839241087436676025e-02
1.716648042201995850e-01
-3.409759700298309326e-02
-1.593315154314041138e-01
1.423792541027069092e-01
-6.030450388789176941e-02
4.654383286833763123e-02
1.094113439321517944e-01
4.062190651893615723e-02
1.565518528223037720e-01
2.016128599643707275e-02
6.184392143040895462e-03
-1.303240060806274414e-01
-8.515407890081405640e-02
-1.081350594758987427e-01
-4.362225881777703762e-04
-1.727324724197387695e-01
-1.200197786092758179e-01
1.389502733945846558e-01
2.980290651321411133e-01
2.761496901512145996e-01
-7.405412942171096802e-02
4.720505699515342712e-02
1.067957282066345215e-02
-9.065143764019012451e-03
-1.406321972608566284e-01
1.535377204418182373e-01
3.401664644479751587e-02
4.419270902872085571e-02
-1.757310479879379272e-01
8.631806820631027222e-02
-1.080613359808921814e-01
2.406978420913219452e-02
-1.019961386919021606e-01
7.599499076604843140e-02
-1.700747758150100708e-01
-2.522204816341400146e-01
-3.089365959167480469e-01
4.845300316810607910e-02
-2.264650102006271482e-04
1.184105351567268372e-01
1.487553026527166367e-02
2.335458695888519287e-01
1.195810884237289429e-01
2.891379296779632568e-01
-3.000436350703239441e-02
-2.265669964253902435e-02
-2.575294971466064453e-01
-2.270308285951614380e-01
1.005721241235733032e-01
-1.092801466584205627e-01
5.285596475005149841e-02
2.719973623752593994e-01
2.880357503890991211e-01
2.889722958207130432e-02
-1.279429197311401367e-01
7.874611020088195801e-02
-4.234460368752479553e-02
-9.775068610906600952e-04
-1.958817243576049805e-01
4.644565656781196594e-02
9.274058043956756592e-02
6.468828022480010986e-02
-1.829759031534194946e-02
3.894862532615661621e-02
-3.688207864761352539e-01
-1.000569164752960205e-01
-1.411080062389373779e-01
-1.351558268070220947e-01
1.352704167366027832e-01
9.770204126834869385e-02
-1.548911631107330322e-01
-1.788934618234634399e-01
-1.505504697561264038e-01
-1.190433353185653687e-01
-2.055666595697402954e-02
1.232986524701118469e-02
5.045483261346817017e-02
1.071785017848014832e-01
-2.427418231964111328e-01
-4.110608398914337158e-01
-1.625340059399604797e-02
-1.943932026624679565e-01
-1.021892428398132324e-01
-2.766954600811004639e-01
8.106155693531036377e-02
-1.537899114191532135e-02
-2.749733813107013702e-02
-3.062929511070251465e-01
-1.083953455090522766e-01
-2.456931024789810181e-02
-1.240447014570236206e-01
-2.360536903142929077e-01
-3.162738978862762451e-01
-1.757282018661499023e-01
-5.088374614715576172e-01
-2.681843638420104980e-01
-2.695622146129608154e-01
-3.499398231506347656e-01
1.492086648941040039e-01
1.043571457266807556e-01
-2.294675447046756744e-02
-1.323612034320831299e-01
1.401167064905166626e-01
2.084064781665802002e-01
1.762409955263137817e-01
-2.666771113872528076e-01
6.505748629570007324e-02
-1.751979589462280273e-01
-1.065035834908485413e-01
1.342678517103195190e-01
1.870427131652832031e-01
-2.084806710481643677e-01
-2.620968222618103027e-01
-2.602401673793792725e-01
1.256759762763977051e-01
-1.839289963245391846e-01
-3.261097520589828491e-02
1.055020391941070557e-01
-3.937842696905136108e-02
-1.280519366264343262e-01
6.541294604539871216e-02
-1.737502515316009521e-01
-9.142687916755676270e-02
8.179091662168502808e-02
-7.250309735536575317e-02
1.193435713648796082e-01
4.753306880593299866e-02
7.543730735778808594e-02
8.674384653568267822e-02
-2.328703552484512329e-01
-7.013262808322906494e-02
-6.954945623874664307e-02
1.554742176085710526e-02
2.203545868396759033e-01
2.469296306371688843e-01
-3.084319829940795898e-01
-1.289360076189041138e-01
-2.152441591024398804e-01
9.299855679273605347e-02
2.338634133338928223e-01
8.657137863337993622e-03
1.659456193447113037e-01
1.275343149900436401e-01
-9.193652123212814331e-02
-4.819715023040771484e-02
-1.117782890796661377e-01
-2.495213970541954041e-02
-1.802645921707153320e-01
1.631144285202026367e-01
-2.320561856031417847e-01
1.277626156806945801e-01
-1.363708376884460449e-01
-8.470587432384490967e-02
9.502122551202774048e-02
-1.657716333866119385e-01
-6.338408589363098145e-02
-2.578223943710327148e-01
-1.901969164609909058e-01
-6.495618075132369995e-02
-4.359807372093200684e-01
-1.524219363927841187e-01
7.665194571018218994e-02
-1.417146474123001099e-01
9.441214799880981445e-02
1.420723050832748413e-01
4.619811475276947021e-02
2.043888568878173828e-01
-6.400613486766815186e-02
1.434002369642257690e-01
3.306744098663330078e-01
8.380683138966560364e-03
-9.290197491645812988e-02
1.551556885242462158e-01
2.007791697978973389e-01
-2.165597118437290192e-02
6.780496239662170410e-02
2.003940641880035400e-01
-4.482831433415412903e-02
-1.427102088928222656e-01
-1.805401891469955444e-01
-2.908425219357013702e-02
6.304570287466049194e-02
-8.704005926847457886e-02
6.993844360113143921e-02
1.187090948224067688e-01
-1.499398350715637207e-01
-2.999738156795501709e-01
-1.086186021566390991e-01
1.225724741816520691e-01
2.462737709283828735e-01
3.449390456080436707e-02
2.896462380886077881e-01
2.188912183046340942e-01
-2.765632271766662598e-01
-3.223625719547271729e-01
4.459062218666076660e-02
4.545351117849349976e-02
3.654383420944213867e-01
1.120222061872482300e-01
1.070663407444953918e-01
3.383703231811523438e-01
1.492538154125213623e-01
3.166120499372482300e-02
3.920245170593261719e-02
-9.205874055624008179e-02
3.505178987979888916e-01
-3.903445601463317871e-02
-7.880596071481704712e-02
7.294170558452606201e-02
1.058746650815010071e-01
-1.369315851479768753e-02
-1.063837707042694092e-01
-1.435859203338623047e-01
2.229988574981689453e-02
9.076191484928131104e-02
-2.083256654441356659e-02
7.466839253902435303e-02
1.793503165245056152e-01
6.418383121490478516e-02
2.538840100169181824e-02
1.123828589916229248e-01
-6.007511913776397705e-02
-9.826190024614334106e-02
1.382960192859172821e-02
-1.804156452417373657e-01
3.227349836379289627e-03
-4.886682145297527313e-03
-1.865251362323760986e-02
1.552938017994165421e-02
1.210002228617668152e-02
-1.340018026530742645e-02
2.537857554852962494e-02
2.448502555489540100e-02
-2.202083356678485870e-02
3.007010184228420258e-02
5.537258461117744446e-03
1.354124210774898529e-02
1.052398048341274261e-02
-4.021637141704559326e-05
-3.972632810473442078e-02
7.970761507749557495e-04
-1.819499954581260681e-02
-5.012498050928115845e-02
-1.871274597942829132e-02
-2.203825488686561584e-02
-3.324727341532707214e-02
-1.463296450674533844e-02
-1.704928278923034668e-02
-1.592788845300674438e-02
-1.362929120659828186e-03
-1.260618399828672409e-02
9.178945911116898060e-04
-3.771116584539413452e-02
3.489052876830101013e-02
1.188254915177822113e-02
-3.005237318575382233e-02
6.249364232644438744e-04
-1.295401249080896378e-02
-2.522445097565650940e-02
-5.286298692226409912e-02
7.878371514379978180e-03
-1.632498763501644135e-02
-3.545498102903366089e-02
-1.029189117252826691e-02
3.737507760524749756e-02
-1.020475104451179504e-02
5.441000312566757202e-02
-4.325939342379570007e-02
-1.027344632893800735e-02
-4.970904067158699036e-02
3.995270654559135437e-02
-3.090106882154941559e-03
2.049192786216735840e-02
-5.602354183793067932e-03
-4.588822275400161743e-02
-5.092805996537208557e-02
-2.817779034376144409e-02
-3.637617826461791992e-02
3.447255492210388184e-02
1.583988219499588013e-02
6.013613194227218628e-03
-1.631200686097145081e-02
3.266170993447303772e-02
1.680448092520236969e-02
-2.703291736543178558e-02
1.642798818647861481e-02
1.611735112965106964e-02
-2.009285055100917816e-02
6.740875542163848877e-03
1.977028511464595795e-02
4.751008003950119019e-02
1.026826426386833191e-01
-1.119034178555011749e-02
-1.024886891245841980e-01
-1.543815582990646362e-01
-3.434731960296630859e-01
-2.273653447628021240e-02
1.504534780979156494e-01
4.348582774400711060e-02
1.666786670684814453e-01
2.719022035598754883e-01
-1.538712382316589355e-01
-1.620841026306152344e-01
-7.746803015470504761e-02
2.196415215730667114e-01
1.152432411909103394e-01
4.076454937458038330e-01
2.570401430130004883e-01
-6.823061406612396240e-02
-1.081653907895088196e-01
-2.798926234245300293e-01
-1.488732546567916870e-01
-1.491485238075256348e-01
-2.237119227647781372e-01
2.448608912527561188e-02
2.173813730478286743e-01
1.764249950647354126e-01
-2.360067367553710938e-01
1.332017779350280762e-01
-5.582357570528984070e-02
1.328693777322769165e-01
-1.163561791181564331e-01
1.341457217931747437e-01
2.390263527631759644e-01
1.138253733515739441e-01
-7.177549600601196289e-02
-1.049041971564292908e-01
3.379367291927337646e-02
-6.177138164639472961e-02
-2.721998691558837891e-01
3.722127899527549744e-02
2.055457085371017456e-01
-2.205006182193756104e-01
7.772036641836166382e-02
4.000667929649353027e-01
-1.229320615530014038e-01
1.440995000302791595e-02
-2.746028602123260498e-01
3.398049995303153992e-02
-1.129556894302368164e-01
8.640402555465698242e-02
3.880216926336288452e-02
-1.309852451086044312e-01
3.147720396518707275e-01
2.963525475934147835e-03
-1.672132685780525208e-02
-6.261938065290451050e-02
1.407535001635551453e-02
1.005841791629791260e-01
6.579848378896713257e-02
-3.293211571872234344e-03
5.931057035923004150e-02
-1.971021294593811035e-01
1.712936535477638245e-02
2.129216194152832031e-01
-1.130611076951026917e-01
-1.296806335449218750e-01
-1.343483626842498779e-01
4.355059936642646790e-03
2.709243446588516235e-02
2.119561284780502319e-02
4.808639734983444214e-02
1.169770807027816772e-01
1.926520764827728271e-01
-8.320396766066551208e-03
-3.400791808962821960e-02
-6.513669341802597046e-02
-1.296588033437728882e-01
-7.680128794163465500e-03
7.036104798316955566e-02
-3.688542544841766357e-02
-7.675579190254211426e-02
-1.593166589736938477e-02
6.314393877983093262e-02
-1.497673243284225464e-02
2.574847340583801270e-01
7.361026853322982788e-02
7.276220619678497314e-02
1.431074589490890503e-01
-8.779731392860412598e-02
3.765378892421722412e-02
2.293795645236968994e-01
-4.145475476980209351e-02
-3.826888278126716614e-02
-8.481676131486892700e-02
-4.596641287207603455e-02
1.174275800585746765e-01
9.202529489994049072e-02
8.455410599708557129e-02
-1.299658864736557007e-01
-1.881717592477798462e-01
3.585157915949821472e-02
1.276969760656356812e-01
9.169825166463851929e-02
-1.622730493545532227e-01
1.092163771390914917e-01
9.307296574115753174e-02
-2.392164468765258789e-01
8.398646116256713867e-02
-3.978529572486877441e-02
1.226116642355918884e-01
-6.380207836627960205e-02
-3.208939433097839355e-01
1.245115846395492554e-01
3.123492188751697540e-02
1.586693227291107178e-01
9.738014638423919678e-02
-5.357490852475166321e-02
1.005988046526908875e-01
-1.197389736771583557e-01
-2.192177027463912964e-01
2.186951786279678345e-01
2.668823488056659698e-02
1.244608685374259949e-01
-4.721779003739356995e-02
8.688563853502273560e-02
-3.527896478772163391e-02
1.260240525007247925e-01
-4.992449656128883362e-02
-9.894455224275588989e-02
-2.099948190152645111e-02
-7.628712058067321777e-02
1.797876060009002686e-01
9.546168893575668335e-02
7.934752106666564941e-02
2.291202694177627563e-01
8.548023179173469543e-03
1.382933184504508972e-02
-5.451260134577751160e-02
-1.977313160896301270e-01
-7.975460588932037354e-02
-2.245366424322128296e-01
1.149565074592828751e-02
1.801642924547195435e-01
2.087029069662094116e-01
-3.210276365280151367e-02
-5.013491213321685791e-02
1.098939180374145508e-01
-8.750738948583602905e-02
1.166431754827499390e-01
-4.076056554913520813e-02
1.889490187168121338e-01
-5.909162387251853943e-02
-3.030863776803016663e-02
1.785566806793212891e-01
-9.418024122714996338e-02
-3.998330235481262207e-02
1.547737568616867065e-01
2.558253519237041473e-02
1.091837068088352680e-03
2.850818634033203125e-01
-4.112628474831581116e-02
1.022081524133682251e-01
2.282711863517761230e-01
-4.260542988777160645e-02
2.819419465959072113e-02
-5.413618311285972595e-02
6.963012367486953735e-02
-1.599387973546981812e-01
-7.064113765954971313e-02
-7.353896647691726685e-02
6.123681366443634033e-02
8.245056122541427612e-02
-8.841898292303085327e-02
3.132771234959363937e-03
-1.949210464954376221e-01
-8.504005521535873413e-02
-1.780249178409576416e-01
1.356231421232223511e-01
3.049910664558410645e-01
1.476148068904876709e-01
-8.790437877178192139e-02
1.263799667358398438e-01
1.789122223854064941e-01
-2.849143147468566895e-01
-1.719810962677001953e-01
1.007265299558639526e-01
1.245272383093833923e-01
9.789928048849105835e-02
7.014878094196319580e-02
-4.727918654680252075e-02
-5.109221488237380981e-02
6.240016967058181763e-02
1.373545974493026733e-01
-1.173161491751670837e-01
2.509040571749210358e-02
5.218206718564033508e-02
-3.668655827641487122e-02
-1.751115918159484863e-01
2.079641371965408325e-01
4.226597398519515991e-02
7.452911883592605591e-02
6.450530886650085449e-02
7.257268577814102173e-02
1.089256703853607178e-01
8.978397399187088013e-02
-6.774197332561016083e-03
-1.513903588056564331e-01
-6.463920325040817261e-02
-7.765422761440277100e-02
-1.321626156568527222e-01
9.426783025264739990e-02
3.536151722073554993e-02
-1.508038789033889771e-01
-9.943683445453643799e-02
-2.047912683337926865e-03
-1.781375519931316376e-02
-1.748075336217880249e-01
-1.327140629291534424e-01
-4.146482944488525391e-01
-3.915459811687469482e-01
-2.537814378738403320e-01
-1.419550031423568726e-01
8.967965096235275269e-02
1.359765976667404175e-01
2.235348969697952271e-01
-9.757972508668899536e-02
-3.631958663463592529e-01
-2.355660349130630493e-01
1.281101703643798828e-01
-5.773655697703361511e-02
-6.680658459663391113e-02
1.546348184347152710e-01
-2.700624242424964905e-02
4.783150181174278259e-02
1.989187449216842651e-01
-7.575432211160659790e-02
-2.595628499984741211e-01
-9.392411261796951294e-02
2.639588713645935059e-01
2.356634438037872314e-01
-1.803040504455566406e-01
-2.614840865135192871e-01
-3.967625498771667480e-01
-4.735458642244338989e-02
-9.421105682849884033e-02
-2.312751300632953644e-02
1.575721055269241333e-01
1.375398784875869751e-01
-1.263777613639831543e-01
-8.914786577224731445e-02
4.309695214033126831e-02
6.252661347389221191e-02
-3.108444437384605408e-02
-1.406833827495574951e-01
8.485237509012222290e-02
4.304875060915946960e-02
2.228241600096225739e-02
-1.378585249185562134e-01
-1.085390225052833557e-01
-9.594243019819259644e-02
-1.279183477163314819e-02
5.647131428122520447e-02
9.251231700181961060e-02
5.426882505416870117e-01
1.452656239271163940e-01
-1.131675466895103455e-01
3.242252767086029053e-02
2.469208324328064919e-03
-1.633239835500717163e-01
3.439886122941970825e-02
-1.897482275962829590e-01
-1.641597151756286621e-01
-1.635403186082839966e-01
-1.223488673567771912e-01
-4.072503745555877686e-02
-5.076865479350090027e-02
-1.144244745373725891e-01
-4.689134284853935242e-02
-1.882613450288772583e-01
2.702338434755802155e-02
3.932317718863487244e-02
1.903775781393051147e-01
-1.129250228404998779e-01
-7.795539498329162598e-02
2.664101421833038330e-01
2.900224030017852783e-01
-9.845376014709472656e-02
-1.487683206796646118e-01
3.514064848423004150e-02
2.452097088098526001e-01
-1.517426073551177979e-01
-9.858448989689350128e-03
1.415344178676605225e-01
2.532865703105926514e-01
1.116639673709869385e-01
1.117851361632347107e-01
3.227415978908538818e-01
3.131551295518875122e-02
2.077864296734333038e-02
-4.352360963821411133e-02
2.083534002304077148e-01
2.200533300638198853e-01
1.344018280506134033e-01
-2.017184495925903320e-01
3.397771716117858887e-01
1.890725921839475632e-03
1.076886802911758423e-01
7.062448561191558838e-02
2.347735920920968056e-03
2.481493866071105003e-03
-1.919043436646461487e-02
-8.568143844604492188e-02
-7.583297789096832275e-02
2.895347587764263153e-02
-1.268404349684715271e-02
2.304217079654335976e-03
-1.001639068126678467e-01
-1.193975880742073059e-01
-3.422502055764198303e-02
-1.002289056777954102e-01
5.366891995072364807e-02
1.265062838792800903e-01
1.469697356224060059e-01
1.457735523581504822e-02
-6.063253432512283325e-02
1.904419511556625366e-01
1.196344662457704544e-02
-7.905781269073486328e-02
4.628714919090270996e-02
-7.874171435832977295e-02
1.099076271057128906e-01
3.630748987197875977e-01
2.622131109237670898e-01
3.167573809623718262e-01
7.500662934035062790e-03
-2.301863878965377808e-01
2.536197900772094727e-01
1.063458174467086792e-01
7.817605882883071899e-02
1.208134293556213379e-01
8.787547051906585693e-02
-1.274911314249038696e-01
-4.475196823477745056e-02
6.295684259384870529e-03
7.683114707469940186e-02
-5.231373757123947144e-02
-6.245140731334686279e-02
-1.492804437875747681e-01
-3.415466099977493286e-02
1.831327974796295166e-01
2.334532290697097778e-01
2.241793423891067505e-01
1.020721420645713806e-01
-5.806512013077735901e-02
-2.071275115013122559e-01
-9.387174248695373535e-02
5.365201458334922791e-02
1.345275193452835083e-01
-1.540887076407670975e-02
-7.647850364446640015e-02
2.244632691144943237e-01
-1.341109722852706909e-01
-1.533755362033843994e-01
-2.322987020015716553e-01
4.879301413893699646e-02
2.767445445060729980e-01
2.952286601066589355e-01
2.719045281410217285e-01
5.919199064373970032e-02
-4.968222230672836304e-02
2.081608213484287262e-02
-1.561328321695327759e-01
-7.208983600139617920e-02
7.221091538667678833e-02
3.973019123077392578e-01
3.867363929748535156e-01
1.587634682655334473e-01
1.426860224455595016e-02
-1.479175537824630737e-01
-1.485402286052703857e-01
-1.043012738227844238e-01
-2.105103433132171631e-01
3.601044714450836182e-01
-3.255737721920013428e-01
2.983313798904418945e-01
2.791728377342224121e-01
1.837148815393447876e-01
-2.335266768932342529e-02
6.860575824975967407e-02
1.503020524978637695e-01
1.133449152112007141e-01
2.173800766468048096e-01
6.320884823799133301e-02
-2.489031851291656494e-01
3.386656045913696289e-01
-2.134033143520355225e-01
3.137900829315185547e-01
3.801509737968444824e-01
2.666007280349731445e-01
1.364296227693557739e-01
-6.478415336459875107e-03
-2.445927709341049194e-01
-3.313718736171722412e-01
-2.314056605100631714e-01
-2.607175409793853760e-01
-1.434923112392425537e-01
2.150262296199798584e-01
1.252825111150741577e-01
1.946381032466888428e-01
-5.008205771446228027e-01
-1.023868247866630554e-01
-1.151658594608306885e-01
-1.236479058861732483e-01
3.344112932682037354e-01
3.550777435302734375e-01
3.001570468768477440e-03
-1.765696406364440918e-01
-1.022572368383407593e-01
-1.991546005010604858e-01
1.116655487567186356e-02
-2.092632465064525604e-02
-1.351077258586883545e-01
2.690872848033905029e-01
4.710191115736961365e-02
3.606182932853698730e-01
-2.039151787757873535e-01
-4.941383376717567444e-02
-5.580836161971092224e-02
2.340914681553840637e-02
-1.210869774222373962e-01
1.122447401285171509e-01
2.001196146011352539e-01
2.084006965160369873e-01
-2.045517787337303162e-02
4.561769962310791016e-02
-2.291676402091979980e-02
-2.406803071498870850e-01
-4.185712337493896484e-01
-4.346702992916107178e-02
8.623114228248596191e-02
2.349143177270889282e-01
-1.664967685937881470e-01
-1.113215386867523193e-01
3.466663509607315063e-02
5.288992449641227722e-02
3.860344290733337402e-01
1.926689893007278442e-01
-3.967580944299697876e-02
-5.632809400558471680e-01
-4.229784011840820312e-01
1.519102454185485840e-01
3.407284021377563477e-01
-1.980756781995296478e-02
2.019456326961517334e-01
4.221472516655921936e-02
4.629804939031600952e-02
-4.608357250690460205e-01
7.071271538734436035e-02
1.198446191847324371e-02
6.800171732902526855e-02
2.416272908449172974e-01
5.042217969894409180e-01
1.173288151621818542e-01
1.600790172815322876e-01
-2.682983577251434326e-01
-4.534538835287094116e-02
5.754457041621208191e-02
5.713646486401557922e-02
2.123380303382873535e-01
1.652413457632064819e-01
1.824030280113220215e-01
-3.627993464469909668e-01
-1.517514437437057495e-01
-4.822655394673347473e-02
4.873857274651527405e-02
-2.718648687005043030e-02
1.626671850681304932e-01
7.824987918138504028e-02
-3.026808239519596100e-02
-3.397240638732910156e-01
-1.152399927377700806e-01
-6.182302720844745636e-03
-1.114274188876152039e-01
2.258362993597984314e-02
-4.179689660668373108e-02
-1.592252589762210846e-02
-2.351331524550914764e-02
8.845286816358566284e-02
-1.261713728308677673e-02
2.506471239030361176e-02
3.959136828780174255e-02
-2.069409489631652832e-01
4.473664239048957825e-02
-1.922505646944046021e-01
2.788003087043762207e-01
8.755972608923912048e-03
6.479567289352416992e-02
2.346222102642059326e-01
7.254732400178909302e-02
1.746701449155807495e-01
-1.666699498891830444e-01
-1.372831463813781738e-01
-7.229436933994293213e-02
3.250407576560974121e-01
3.881835937500000000e-01
2.068500071763992310e-01
1.925123929977416992e-01
2.462332397699356079e-01
3.145152628421783447e-01
-1.276641935110092163e-01
-1.308994889259338379e-01
-2.129971683025360107e-01
-3.505174443125724792e-02
8.844380266964435577e-03
-5.794529244303703308e-02
-1.269372850656509399e-01
-1.549890339374542236e-01
-7.647357881069183350e-02
-4.227922763675451279e-03
2.551297843456268311e-01
-1.931634545326232910e-02
3.686536848545074463e-01
6.088383123278617859e-02
1.402212381362915039e-01
7.841496914625167847e-02
4.770099744200706482e-02
6.323666870594024658e-02
2.628398835659027100e-01
1.601794511079788208e-01
9.198759496212005615e-02
1.711919307708740234e-01
2.904948890209197998e-01
1.372961401939392090e-01
9.837628155946731567e-02
1.578840240836143494e-02
1.960819363594055176e-01
1.610583066940307617e-01
9.889507293701171875e-02
1.171129755675792694e-02
7.110513746738433838e-02
3.040789961814880371e-01
-1.803212761878967285e-01
6.785808503627777100e-02
6.355977151542901993e-03
1.716788709163665771e-01
-4.555401206016540527e-02
-4.673561155796051025e-01
-1.562257260084152222e-01
2.490107268095016479e-01
1.993225365877151489e-01
3.657250478863716125e-02
-1.369976438581943512e-02
6.758632510900497437e-02
1.962238401174545288e-01
1.665593981742858887e-01
-6.225354969501495361e-02
-1.200082674622535706e-01
3.749625384807586670e-02
-3.520662710070610046e-02
-2.351093590259552002e-01
1.543197128921747208e-02
1.049508675932884216e-01
-2.702224999666213989e-02
3.168085813522338867e-01
-3.448765277862548828e-01
-2.758599221706390381e-01
7.001114636659622192e-02
3.318310379981994629e-01
-5.552167817950248718e-02
3.009931743144989014e-02
2.784445881843566895e-01
-6.567707657814025879e-02
-1.528651267290115356e-01
-8.878247439861297607e-02
2.683548629283905029e-01
5.177837610244750977e-02
8.125188201665878296e-02
1.170183420181274414e-01
-2.794759273529052734e-01
-6.695891171693801880e-02
3.583744540810585022e-02
8.692891895771026611e-02
-8.060409128665924072e-02
6.433006376028060913e-02
6.851784884929656982e-02
-2.712688148021697998e-01
-2.228481173515319824e-01
6.596005707979202271e-02
-7.555630523711442947e-03
1.128860041499137878e-01
-1.069286018610000610e-01
1.725632697343826294e-01
-5.907040834426879883e-02
-7.902300357818603516e-02
1.616476476192474365e-01
-2.790089547634124756e-01
1.989985350519418716e-03
1.667090803384780884e-01
1.878030225634574890e-02
-1.309591978788375854e-01
-5.126376636326313019e-03
2.102433890104293823e-02
-1.877905577421188354e-01
-1.124485582113265991e-01
3.335704281926155090e-02
1.088541969656944275e-01
-4.658292606472969055e-02
2.599808275699615479e-01
-3.277459740638732910e-02
-3.377244248986244202e-02
4.871738329529762268e-02
-1.532882302999496460e-01
-1.118703708052635193e-01
-1.220064237713813782e-02
-7.542710751295089722e-02
2.659170031547546387e-01
-2.455216497182846069e-01
-3.929333984851837158e-01
-6.967497617006301880e-02
-8.034981787204742432e-02
-3.342798352241516113e-01
4.043070971965789795e-02
-4.015653133392333984e-01
1.794815659523010254e-01
-1.722943186759948730e-01
-2.241681367158889771e-01
-1.186442375183105469e-01
-2.240250110626220703e-01
-1.747359335422515869e-01
-1.500617861747741699e-01
8.236663043498992920e-02
-1.913843676447868347e-02
6.585513055324554443e-02
-1.163791120052337646e-01
-2.754111029207706451e-02
2.106269747018814087e-01
3.441698476672172546e-02
-4.796722903847694397e-02
3.112514615058898926e-01
-2.295729815959930420e-01
2.996406890451908112e-02
1.905058622360229492e-01
1.190552115440368652e-01
6.486279889941215515e-03
4.316251352429389954e-02
-5.598447918891906738e-01
1.668622046709060669e-01
-1.357583850622177124e-01
2.395377308130264282e-01
-6.245868746191263199e-03
1.399439573287963867e-01
-3.849455341696739197e-02
-1.115357503294944763e-01
-2.869882583618164062e-01
-1.511203497648239136e-01
1.681350618600845337e-01
2.824252843856811523e-01
5.219410732388496399e-02
-1.900700926780700684e-01
8.272102475166320801e-02
-3.541903942823410034e-02
-2.269494831562042236e-01
-1.614841632544994354e-02
1.387930065393447876e-01
3.851388394832611084e-01
1.481164097785949707e-01
3.496338427066802979e-02
1.681580692529678345e-01
1.206792443990707397e-01
-4.606438428163528442e-02
2.334089577198028564e-02
-7.657503336668014526e-02
1.351543366909027100e-01
-6.793368142098188400e-03
7.736768573522567749e-02
7.220481336116790771e-02
1.387341916561126709e-01
-8.246522396802902222e-02
-8.769927918910980225e-02
-1.457791626453399658e-01
-1.634754985570907593e-02
-8.425741642713546753e-02
-4.739745333790779114e-02
-1.281502097845077515e-01
-1.537103019654750824e-02
3.301699832081794739e-02
2.477236092090606689e-01
-4.810510203242301941e-02
-3.291277885437011719e-01
-8.510904759168624878e-02
8.673486881889402866e-04
7.741221785545349121e-02
2.427172362804412842e-01
1.596807390451431274e-01
1.160196363925933838e-01
-1.390741020441055298e-01
-3.857836425304412842e-01
-1.317713111639022827e-01
-2.524212598800659180e-01
-2.372015453875064850e-02
7.114631682634353638e-02
6.151882931590080261e-02
1.691764779388904572e-02
8.579168468713760376e-02
-2.752087824046611786e-02
-2.218524366617202759e-01
2.028845846652984619e-01
-1.680952906608581543e-01
2.184490412473678589e-01
-2.771298401057720184e-02
-8.623326569795608521e-02
8.644179441034793854e-03
-2.668632268905639648e-01
-5.545084923505783081e-02
-2.649273909628391266e-02
-2.518610060214996338e-01
-1.915031671524047852e-01
-1.414823997765779495e-02
-1.027414128184318542e-01
1.611228585243225098e-01
-1.395762711763381958e-01
-3.938192129135131836e-01
7.481106370687484741e-02
-3.349919244647026062e-02
1.555504649877548218e-01
3.301729261875152588e-01
1.612832248210906982e-01
2.652290165424346924e-01
-1.289547383785247803e-01
-1.417364180088043213e-01
9.345287457108497620e-03
-1.835495792329311371e-02
2.035138383507728577e-02
2.029323130846023560e-01
-1.392133384943008423e-01
4.066124558448791504e-02
-5.491522699594497681e-02
8.797106146812438965e-02
-2.440756186842918396e-02
-1.139857098460197449e-01
-1.601621061563491821e-01
1.250676661729812622e-01
7.880389690399169922e-02
-1.071307621896266937e-02
-6.178317219018936157e-02
4.774693399667739868e-02
1.454185601323843002e-02
-3.064502775669097900e-01
-2.539080679416656494e-01
-6.006771698594093323e-02
-2.638015151023864746e-01
-8.734170347452163696e-02
1.237551122903823853e-01
4.617006331682205200e-02
1.117212474346160889e-01
-3.571637347340583801e-02
-1.604536026716232300e-01
-7.976720482110977173e-02
-8.841513842344284058e-02
-2.870339155197143555e-01
-4.064564034342765808e-02
1.096282824873924255e-01
3.839271143078804016e-02
-2.990280687808990479e-01
-3.515605628490447998e-02
-8.909596502780914307e-02
-6.427707523107528687e-02
-6.002711132168769836e-02
5.685041844844818115e-02
3.347134292125701904e-01
2.037014663219451904e-01
-1.328471153974533081e-01
-1.803755015134811401e-01
-2.558130621910095215e-01
2.684621885418891907e-02
-1.482558697462081909e-01
1.296848803758621216e-01
9.755872189998626709e-02
-2.381654083728790283e-02
2.251861244440078735e-02
4.416011273860931396e-02
-1.080741956830024719e-01
2.826811671257019043e-01
2.259238995611667633e-02
-9.566189348697662354e-02
-1.247888803482055664e-01
-2.379588931798934937e-01
-1.141687631607055664e-01
-1.797237545251846313e-01
-3.174591064453125000e-01
2.775464057922363281e-01
9.233843535184860229e-02
3.190943971276283264e-02
1.785082668066024780e-01
9.706927835941314697e-02
-1.459629833698272705e-01
4.222887381911277771e-02
-1.846406422555446625e-02
1.799157708883285522e-01
7.066207379102706909e-02
-1.694471091032028198e-01
-1.317740976810455322e-01
-2.848321497440338135e-01
-2.058961987495422363e-01
9.651625901460647583e-02
-1.147745773196220398e-01
-4.877788200974464417e-02
1.164295300841331482e-01
1.438363939523696899e-01
-1.585809737443923950e-01
-1.233569830656051636e-01
-2.294626235961914062e-01
3.490290045738220215e-01
2.833483219146728516e-01
1.450994014739990234e-01
8.127164095640182495e-02
3.278382495045661926e-02
2.851069346070289612e-02
-2.034613043069839478e-01
-2.076274901628494263e-01
3.498742282390594482e-01
7.445953786373138428e-02
-1.381553411483764648e-01
3.435420244932174683e-02
-3.308728039264678955e-01
-1.457415148615837097e-02
1.357755362987518311e-01
-1.596718579530715942e-01
2.602450847625732422e-01
9.347184002399444580e-02
8.917244523763656616e-02
8.662061765789985657e-03
-4.733453094959259033e-01
-2.273669242858886719e-01
-1.196992769837379456e-01
-2.084278166294097900e-01
-1.754037886857986450e-01
-1.175273284316062927e-01
-9.049716591835021973e-02
1.007693707942962646e-01
-2.371824830770492554e-01
-1.891985088586807251e-01
-3.598359227180480957e-01
-1.988850682973861694e-01
-7.063469290733337402e-02
1.359192132949829102e-01
2.229844219982624054e-03
-1.174604073166847229e-01
4.599168151617050171e-02
-3.274514973163604736e-01
4.424822330474853516e-02
-2.176004201173782349e-01
2.090761363506317139e-01
-7.639554142951965332e-02
-1.422370672225952148e-01
-1.606343686580657959e-01
-1.596790850162506104e-01
-3.190417587757110596e-01
-3.637832403182983398e-02
-2.153897583484649658e-01
-3.009407818317413330e-01
-4.088465869426727295e-02
-1.448241770267486572e-01
-2.002594172954559326e-01
-1.936215460300445557e-01
2.265783213078975677e-02
-4.498571529984474182e-02
1.377089172601699829e-01
-3.396093472838401794e-02
-2.631986439228057861e-01
-2.941159307956695557e-01
-4.014646112918853760e-01
-4.404198825359344482e-01
-1.895948946475982666e-01
7.745787501335144043e-02
1.714947670698165894e-01
-5.321528017520904541e-02
-1.729386001825332642e-01
-6.967800855636596680e-01
-7.597023248672485352e-02
-9.403491020202636719e-02
-1.314569264650344849e-01
-2.066771388053894043e-01
7.738952338695526123e-02
-1.123959422111511230e-01
-1.737921684980392456e-01
-3.376118838787078857e-01
1.672080010175704956e-01
-1.665417104959487915e-01
-7.246667146682739258e-01
-2.347027510404586792e-01
-2.626907825469970703e-01
-1.739876568317413330e-01
-4.522734284400939941e-01
1.884597986936569214e-01
-1.928354613482952118e-02
-2.125691808760166168e-02
1.381129585206508636e-02
1.737427152693271637e-02
-7.677398622035980225e-03
4.280067980289459229e-03
6.912194192409515381e-03
-5.579454824328422546e-03
-5.424034222960472107e-02
1.518473215401172638e-02
3.220599144697189331e-03
1.253418438136577606e-02
-1.083379425108432770e-02
2.539642155170440674e-04
-5.367379635572433472e-03
1.455121673643589020e-02
-4.697997495532035828e-02
-5.276286974549293518e-03
-2.022945135831832886e-02
4.870761185884475708e-04
-9.769381023943424225e-03
5.209745839238166809e-03
-1.654506660997867584e-02
1.244601793587207794e-02
-2.859704755246639252e-02
-7.384704425930976868e-03
1.634736172854900360e-02
8.677538484334945679e-03
-1.963803358376026154e-02
-1.354929991066455841e-02
-1.853536628186702728e-02
-8.118784055113792419e-03
-1.850021071732044220e-02
-9.503742679953575134e-03
-1.517285220324993134e-02
8.386395871639251709e-03
6.858859211206436157e-03
1.314290054142475128e-02
1.279761828482151031e-02
8.845046162605285645e-03
1.231659017503261566e-02
8.872248232364654541e-03
-1.180307753384113312e-02
-1.896332949399948120e-02
-5.499863997101783752e-03
7.905177772045135498e-03
-1.997049152851104736e-02
-1.863309741020202637e-02
-7.228231430053710938e-02
-9.603343904018402100e-03
-1.469807047396898270e-02
1.089171133935451508e-02
-1.835111714899539948e-02
2.059403620660305023e-02
-2.698248252272605896e-03
-1.835708692669868469e-02
1.028380356729030609e-02
9.805264882743358612e-03
-1.800169423222541809e-02
5.050608888268470764e-03
1.765354163944721222e-02
1.534635294228792191e-02
4.995909333229064941e-02
4.326797649264335632e-02
-2.020774781703948975e-01
3.608110174536705017e-02
-1.998905390501022339e-01
2.798667177557945251e-03
-1.607498228549957275e-01
-1.410715281963348389e-01
6.660011410713195801e-02
-4.096594825387001038e-02
1.865827478468418121e-02
4.545973986387252808e-02
-8.678773790597915649e-02
7.278320938348770142e-02
2.275582589209079742e-02
1.262506353668868542e-03
1.030694413930177689e-02
-1.635588705539703369e-01
-1.278170943260192871e-01
1.109187025576829910e-02
-2.029355801641941071e-02
6.075404956936836243e-02
1.610203683376312256e-01
9.393421560525894165e-02
2.337137907743453979e-01
-1.894588619470596313e-01
-1.695308685302734375e-01
2.148541435599327087e-02
6.519400328397750854e-02
2.191822081804275513e-01
-3.162311390042304993e-02
-4.269663617014884949e-02
1.604478955268859863e-01
-3.048996254801750183e-02
-1.439442187547683716e-01
-1.472405195236206055e-01
2.437523938715457916e-02
3.509152308106422424e-02
9.779583662748336792e-02
-2.909869700670242310e-02
1.205745413899421692e-01
-3.198676556348800659e-02
1.393589824438095093e-01
1.455346122384071350e-02
-7.975275814533233643e-02
1.465637087821960449e-01
1.220157518982887268e-01
4.590257257223129272e-02
-1.353475004434585571e-01
-1.911436766386032104e-02
3.343248367309570312e-01
1.228807568550109863e-01
2.363718450069427490e-01
2.065790593624114990e-01
1.152463927865028381e-01
1.582967042922973633e-01
7.824175059795379639e-02
-4.468172416090965271e-02
6.409414857625961304e-02
-7.103101909160614014e-02
6.006553396582603455e-02
6.439586728811264038e-02
6.154599413275718689e-02
-1.173741519451141357e-01
3.290209174156188965e-02
4.812912642955780029e-02
3.058511614799499512e-01
2.017039954662322998e-01
1.295522004365921021e-01
-2.159446030855178833e-01
8.991973847150802612e-02
1.130683943629264832e-01
1.890583634376525879e-01
4.713886603713035583e-02
-5.861778184771537781e-02
-2.995314896106719971e-01
-1.924107819795608521e-01
-3.758073747158050537e-01
-1.600710451602935791e-01
-1.597172766923904419e-01
1.154396235942840576e-01
-1.976967602968215942e-02
-5.833021551370620728e-02
-7.609336972236633301e-01
-6.184718608856201172e-01
-6.977526545524597168e-01
-2.996575534343719482e-01
6.845819205045700073e-02
-1.532839238643646240e-01
1.038465127348899841e-01
2.238888107240200043e-02
-1.677683442831039429e-01
-4.605061709880828857e-01
-4.672631025314331055e-01
-2.850796282291412354e-01
-4.715174138545989990e-01
-1.154515966773033142e-01
6.932979822158813477e-02
-2.580863535404205322e-01
-1.457447707653045654e-01
-2.870810925960540771e-01
-2.195094525814056396e-01
-1.639005988836288452e-01
-8.708665519952774048e-02
-2.851109206676483154e-01
3.062295727431774139e-02
-4.811028838157653809e-01
-3.290569484233856201e-01
1.740246713161468506e-01
-2.028124779462814331e-01
-1.519024074077606201e-01
-1.632796525955200195e-01
-6.532117724418640137e-01
-2.195218205451965332e-01
-8.506710082292556763e-02
6.944325566291809082e-02
2.475581914186477661e-01
-8.558985590934753418e-02
-1.246854364871978760e-01
-1.226190403103828430e-01
-2.926098704338073730e-01
-3.211441934108734131e-01
-1.396044939756393433e-01
2.176537960767745972e-01
-1.841326653957366943e-01
-7.416898757219314575e-02
2.345879934728145599e-02
-3.752103447914123535e-01
2.787949442863464355e-01
-7.939472794532775879e-02
-1.295948401093482971e-02
1.154327616095542908e-01
-1.048636585474014282e-01
-6.386467069387435913e-02
1.238207072019577026e-01
-2.316783070564270020e-01
-1.086288318037986755e-01
-1.241231709718704224e-01
-9.695619344711303711e-02
2.071052491664886475e-01
-1.619230508804321289e-01
-1.356268525123596191e-01
-1.192513480782508850e-01
-2.176199108362197876e-01
7.005375623703002930e-02
-1.405678987503051758e-01
-6.404463946819305420e-02
-2.705944180488586426e-01
2.512426115572452545e-02
-2.414378374814987183e-01
-3.238906860351562500e-01
-3.468950092792510986e-01
-2.380437403917312622e-01
-1.608985960483551025e-01
-2.146685421466827393e-01
-4.038057103753089905e-02
-2.072634845972061157e-01
-6.452035903930664062e-01
-6.143640875816345215e-01
-5.574938654899597168e-01
-1.337773948907852173e-01
-1.498012393712997437e-01
2.062384039163589478e-01
7.286015152931213379e-02
-1.790012717247009277e-01
-8.073397912085056305e-03
-3.374002501368522644e-02
6.533496826887130737e-02
6.554337590932846069e-02
-2.071159332990646362e-01
2.001287490129470825e-01
-5.500248819589614868e-02
5.552248358726501465e-01
3.730199038982391357e-01
4.097119271755218506e-01
3.521730005741119385e-01
-3.457067012786865234e-01
-1.246157437562942505e-01
-4.732169210910797119e-02
-3.223493695259094238e-01
5.595033168792724609e-01
2.834724187850952148e-01
2.544228732585906982e-01
-8.332003653049468994e-02
1.333265602588653564e-01
8.565261960029602051e-02
1.619320213794708252e-01
-6.188262253999710083e-02
8.379927277565002441e-02
-2.954872846603393555e-01
-7.520204037427902222e-02
-1.676123216748237610e-02
4.461143165826797485e-02
3.091907203197479248e-01
8.591403067111968994e-02
-1.062751635909080505e-01
-3.081994950771331787e-01
-1.117910444736480713e-02
4.615724831819534302e-02
1.538356393575668335e-01
5.927423760294914246e-02
-5.055515095591545105e-02
2.200115025043487549e-01
7.547240704298019409e-02
1.646620482206344604e-01
-1.145977228879928589e-01
-6.249375641345977783e-02
-2.240213751792907715e-02
-1.241528913378715515e-01
-9.140608459711074829e-02
2.253417484462261200e-02
-1.905277818441390991e-01
-1.091433502733707428e-02
-6.037373095750808716e-02
-8.683215081691741943e-02
1.918486356735229492e-01
8.302992582321166992e-02
2.615865319967269897e-03
-1.449595391750335693e-01
-1.249410510063171387e-01
2.946717143058776855e-01
2.623576819896697998e-01
2.058757841587066650e-01
3.969670832157135010e-01
-2.986595332622528076e-01
-1.451182961463928223e-01
-3.411257863044738770e-01
-1.781083196401596069e-01
1.888271123170852661e-01
4.967139661312103271e-02
1.383232176303863525e-01
3.533323407173156738e-01
-1.137147769331932068e-01
-4.074949622154235840e-01
-6.801521033048629761e-02
-2.556909322738647461e-01
-8.941433578729629517e-02
-8.455954492092132568e-02
2.168942689895629883e-01
1.778079271316528320e-01
2.097081691026687622e-01
1.789289563894271851e-01
2.703360319137573242e-01
7.926462590694427490e-02
-1.376324295997619629e-01
1.189047098159790039e-01
2.098090201616287231e-01
2.413483709096908569e-01
4.777978956699371338e-01
4.266099035739898682e-01
2.495245635509490967e-01
3.585090115666389465e-02
6.916552782058715820e-02
2.214895337820053101e-01
3.193725645542144775e-01
1.031068116426467896e-01
1.465344876050949097e-01
3.312824070453643799e-01
1.966228038072586060e-01
-2.317047864198684692e-01
3.734496422111988068e-03
-3.010124266147613525e-01
-1.621243171393871307e-02
2.881039679050445557e-01
-3.333016335964202881e-01
-2.490652203559875488e-01
-4.749764874577522278e-02
-9.561967104673385620e-02
-1.321804821491241455e-01
-5.988019704818725586e-02
-9.090064465999603271e-02
-4.040901362895965576e-02
-2.060479521751403809e-01
1.312891095876693726e-01
-2.904398441314697266e-01
-1.840460300445556641e-01
3.076389729976654053e-01
3.585396409034729004e-01
1.855475604534149170e-01
1.719913482666015625e-01
-1.222977712750434875e-01
8.047791570425033569e-02
1.322257891297340393e-02
2.461756616830825806e-01
9.749357402324676514e-02
1.611696481704711914e-01
3.089331090450286865e-01
-4.918373376131057739e-02
1.017517372965812683e-01
4.249700009822845459e-01
-2.781973183155059814e-01
1.547657400369644165e-01
2.552856802940368652e-01
2.148890942335128784e-01
1.228367537260055542e-01
9.415992349386215210e-02
1.341404467821121216e-01
-4.592924565076828003e-02
5.252440571784973145e-01
2.658149600028991699e-01
3.243771493434906006e-01
9.568934887647628784e-02
6.885957717895507812e-02
1.481982320547103882e-02
2.745500504970550537e-01
-1.117102429270744324e-01
2.050326168537139893e-01
1.931486278772354126e-01
2.190885692834854126e-01
3.071482181549072266e-01
2.695331573486328125e-01
7.555386424064636230e-02
-8.174087852239608765e-02
-5.670193433761596680e-01
4.208842292428016663e-02
7.007156610488891602e-01
5.194020867347717285e-01
3.113618791103363037e-01
1.163561921566724777e-02
-3.825891390442848206e-02
-2.345616221427917480e-01
-1.674177497625350952e-01
-9.772820770740509033e-02
-2.824569493532180786e-02
-1.056560035794973373e-02
8.846812695264816284e-02
7.041206955909729004e-02
-6.501513998955488205e-03
8.895999193191528320e-02
-9.931524842977523804e-02
-1.116777807474136353e-01
1.938352361321449280e-02
4.081103950738906860e-03
-1.482315361499786377e-01
7.863079756498336792e-02
5.101394653320312500e-02
4.822283238172531128e-02
8.877014368772506714e-02
2.937672659754753113e-02
-3.311332315206527710e-02
-1.205968186259269714e-01
-1.284517943859100342e-01
6.449444591999053955e-02
-1.627623587846755981e-01
-1.785616204142570496e-02
1.885940134525299072e-02
1.219120323657989502e-01
7.230459898710250854e-02
1.193500030785799026e-02
6.765003502368927002e-02
1.205651685595512390e-01
1.700918674468994141e-01
1.320347934961318970e-01
-1.119564548134803772e-01
1.108335554599761963e-01
1.749591827392578125e-01
1.532792598009109497e-01
-6.466989219188690186e-02
1.041471064090728760e-01
3.393974900245666504e-02
1.671183109283447266e-01
-1.235844045877456665e-01
-4.666855931282043457e-01
8.414873480796813965e-02
-4.816860333085060120e-02
-2.157617174088954926e-02
-3.266073390841484070e-02
7.084999233484268188e-02
1.830152124166488647e-01
-1.355287283658981323e-01
9.334442019462585449e-02
9.419010579586029053e-02
-3.260477632284164429e-02
-2.108675539493560791e-01
-1.055239588022232056e-01
-4.152085259556770325e-02
2.077066749334335327e-01
-1.594802290201187134e-01
-3.753719031810760498e-01
-1.042153462767601013e-01
-6.606203317642211914e-02
-8.932727575302124023e-02
-1.141748800873756409e-01
-2.127763926982879639e-01
-1.363149732351303101e-01
7.416858524084091187e-02
-3.026562333106994629e-01
-3.544858470559120178e-02
-2.261427789926528931e-02
-2.103410810232162476e-01
1.774703152477741241e-02
-8.928918093442916870e-02
-1.014910265803337097e-02
1.301763206720352173e-01
-3.663673996925354004e-02
-1.333665102720260620e-01
-5.967706441879272461e-02
2.646816708147525787e-02
4.224503412842750549e-02
4.859691485762596130e-02
-1.935932934284210205e-01
-2.911378256976604462e-02
-4.153792262077331543e-01
-1.632759533822536469e-02
2.103624641895294189e-01
4.558075666427612305e-01
1.801398545503616333e-01
1.354170441627502441e-01
-7.504550367593765259e-02
-1.876986026763916016e-01
-2.993272840976715088e-01
3.356551378965377808e-02
2.530709207057952881e-01
4.365561604499816895e-01
2.646908462047576904e-01
1.320345699787139893e-01
-2.254125028848648071e-01
-3.013719916343688965e-01
-1.229376439005136490e-02
8.823724091053009033e-02
1.292640119791030884e-01
3.676200211048126221e-01
2.879448533058166504e-01
2.666048705577850342e-01
-1.540445536375045776e-01
-1.355513632297515869e-01
-9.953686036169528961e-03
-1.340360492467880249e-01
5.283420905470848083e-02
4.351228103041648865e-02
9.765814244747161865e-02
2.152410894632339478e-01
-8.029115386307239532e-03
-2.394826412200927734e-01
-1.432243287563323975e-01
-7.376931607723236084e-02
1.280291527509689331e-01
1.973599046468734741e-01
-9.551164507865905762e-02
-9.445124119520187378e-02
1.105997934937477112e-01
-3.194985389709472656e-01
-1.795282810926437378e-01
9.471077471971511841e-02
1.961698085069656372e-01
3.248650729656219482e-01
1.588161736726760864e-01
2.104504257440567017e-01
-2.713770046830177307e-02
-6.019693613052368164e-01
3.428416326642036438e-02
1.526015717536211014e-02
-7.551420480012893677e-02
7.421067357063293457e-02
1.723308563232421875e-01
1.177509203553199768e-01
2.138553708791732788e-01
-1.055939123034477234e-01
2.060672789812088013e-01
4.771590232849121094e-02
-2.341271378099918365e-02
9.136390872299671173e-03
1.363560855388641357e-01
-1.139430999755859375e-01
-2.387329190969467163e-01
-8.884268254041671753e-02
6.053707376122474670e-02
1.385502517223358154e-01
1.441668868064880371e-01
-2.098377645015716553e-01
4.791984334588050842e-03
1.799110323190689087e-01
3.751791268587112427e-02
-2.596716284751892090e-01
3.115478530526161194e-02
-3.249754607677459717e-01
-2.101872265338897705e-01
-4.665753245353698730e-01
-2.136975973844528198e-01
-2.683051116764545441e-02
-1.392530202865600586e-01
3.518574684858322144e-02
-2.887808019295334816e-03
4.525739699602127075e-03
-6.668619066476821899e-02
1.396581344306468964e-02
-3.376150503754615784e-03
-1.640117913484573364e-01
2.992641553282737732e-02
2.117107063531875610e-01
-1.101515721529722214e-02
3.144723773002624512e-01
8.457778394222259521e-02
-1.558310240507125854e-01
-1.902564615011215210e-01
-1.841995567083358765e-01
-2.406872659921646118e-01
2.039799690246582031e-01
2.877367734909057617e-01
8.726191520690917969e-02
-1.430082470178604126e-01
-2.230739444494247437e-01
-2.241346836090087891e-01
-3.016133606433868408e-01
1.344092786312103271e-01
-2.485803514719009399e-01
-2.153915613889694214e-01
-6.613146513700485229e-02
-1.362653374671936035e-01
2.538150176405906677e-02
-1.502853631973266602e-01
-9.788546711206436157e-02
-3.156317770481109619e-01
-1.022252216935157776e-01
2.218922972679138184e-01
5.276633426547050476e-02
-1.721798032522201538e-01
-1.594893820583820343e-02
-4.707083851099014282e-02
2.532484829425811768e-01
2.017970755696296692e-02
1.674298048019409180e-01
1.634273082017898560e-01
-1.427689492702484131e-01
1.622867304831743240e-03
8.308940380811691284e-02
-4.295898973941802979e-02
-3.213332593441009521e-01
-1.396401524543762207e-01
1.369963139295578003e-01
7.007428258657455444e-02
4.524276778101921082e-02
-1.035517603158950806e-01
-1.059826239943504333e-01
8.949472010135650635e-02
-2.057456374168395996e-01
-2.876991331577301025e-01
-6.983041018247604370e-02
1.044186502695083618e-01
1.444909125566482544e-01
6.833449006080627441e-02
7.807045429944992065e-02
-3.337729275226593018e-01
-1.505557596683502197e-01
-1.374329179525375366e-01
-6.336928158998489380e-02
-3.580286800861358643e-01
1.193956583738327026e-01
-2.218396216630935669e-01
-1.691501289606094360e-01
-2.202749997377395630e-01
-3.865864872932434082e-01
-2.333162426948547363e-01
-3.278249204158782959e-01
-2.000449299812316895e-01
1.382180154323577881e-01
5.593275651335716248e-02
-3.113654255867004395e-01
-5.737463012337684631e-02
-5.452108755707740784e-02
-3.465183079242706299e-01
-2.506293058395385742e-01
-4.177677333354949951e-01
8.951997011899948120e-02
6.116889789700508118e-02
-1.068849768489599228e-02
3.852142393589019775e-02
3.224820271134376526e-02
-1.079007890075445175e-02
-1.501997858285903931e-01
2.444387041032314301e-02
2.184247374534606934e-01
5.951298028230667114e-02
3.905599564313888550e-02
-8.885493129491806030e-02
-1.501545216888189316e-02
6.670505739748477936e-03
-2.363696508109569550e-02
1.079421713948249817e-01
1.436582505702972412e-01
1.756975203752517700e-01
-9.317362308502197266e-02
2.056024502962827682e-03
3.099566325545310974e-02
-7.598175853490829468e-02
-1.091435998678207397e-01
-3.139296546578407288e-02
-5.361217632889747620e-02
-9.043707698583602905e-02
2.483708560466766357e-01
-4.646496102213859558e-02
6.072249962016940117e-04
3.704697638750076294e-02
-3.415933251380920410e-02
3.345134258270263672e-01
1.562775075435638428e-01
1.305467486381530762e-01
2.815941870212554932e-01
4.325333535671234131e-01
2.175477147102355957e-01
1.393970996141433716e-01
6.929048802703619003e-03
1.512890756130218506e-01
8.191586472094058990e-03
1.158400028944015503e-01
1.127682849764823914e-01
8.196642994880676270e-02
2.119771838188171387e-01
1.959780156612396240e-01
1.678833365440368652e-02
7.581058144569396973e-02
-2.218265384435653687e-01
-1.746819019317626953e-01
2.125886827707290649e-01
2.192157208919525146e-01
-9.191852807998657227e-02
-1.726187951862812042e-02
3.046363592147827148e-03
-6.451131403446197510e-02
9.619460999965667725e-02
-1.522309929132461548e-01
1.326739341020584106e-01
-2.055582776665687561e-02
-2.857422269880771637e-02
-2.044405937194824219e-01
3.922359272837638855e-02
-2.581350803375244141e-01
1.283984631299972534e-01
-2.721535414457321167e-02
-1.490950137376785278e-01
2.341281995177268982e-02
-2.727189660072326660e-01
-2.951876819133758545e-01
2.726705186069011688e-02
-3.126099705696105957e-01
7.819833606481552124e-02
-7.092156261205673218e-02
-1.669238358736038208e-01
5.556572601199150085e-02
-8.390200883150100708e-02
3.594934567809104919e-02
5.385508388280868530e-02
-1.203443035483360291e-01
5.455423612147569656e-03
1.548281055875122547e-03
-1.760890483856201172e-01
-4.660287126898765564e-02
4.426388477440923452e-04
-1.917971670627593994e-01
5.901004746556282043e-02
4.307597503066062927e-02
-1.009396687150001526e-01
8.536741882562637329e-02
1.450934261083602905e-01
-1.903301663696765900e-02
4.592791199684143066e-02
-1.320472657680511475e-01
2.589020729064941406e-01
1.242113858461380005e-01
1.009459644556045532e-01
-3.032473847270011902e-02
1.098616048693656921e-02
1.133887320756912231e-01
2.553090639412403107e-02
4.995446279644966125e-02
1.443310379981994629e-01
1.861599087715148926e-01
1.535162422806024551e-02
1.748427748680114746e-01
1.584081649780273438e-01
3.456736505031585693e-01
-9.332907386124134064e-03
2.252370864152908325e-01
2.642911970615386963e-01
-6.196352094411849976e-02
2.908357977867126465e-01
2.858749032020568848e-01
2.453918457031250000e-01
3.042221963405609131e-01
9.113631397485733032e-02
1.108588352799415588e-01
8.520870655775070190e-02
-2.249806225299835205e-01
5.614215135574340820e-02
1.817450523376464844e-01
1.450034976005554199e-01
7.578846812248229980e-02
1.766134649515151978e-01
3.504358977079391479e-02
-1.743299812078475952e-01
-1.085352227091789246e-01
6.990696489810943604e-02
-2.410667389631271362e-02
3.815932571887969971e-02
1.492560803890228271e-01
1.969174146652221680e-01
1.503450572490692139e-01
-6.621482223272323608e-02
-2.389534749090671539e-02
-6.501964479684829712e-02
8.018991909921169281e-03
-1.266270279884338379e-01
2.701313234865665436e-02
1.277093291282653809e-01
-1.410044282674789429e-01
-2.740494161844253540e-02
-3.912053536623716354e-03
1.993020176887512207e-01
1.985414922237396240e-01
-8.566658198833465576e-02
-1.713463664054870605e-02
-6.011085212230682373e-02
1.413125544786453247e-01
5.994303897023200989e-02
-1.518608480691909790e-01
7.646489143371582031e-02
-3.401826024055480957e-01
-1.359844207763671875e-01
-2.478597015142440796e-01
-2.263893336057662964e-01
1.169739365577697754e-01
-1.149282157421112061e-01
-3.905491530895233154e-02
1.831498146057128906e-01
-2.064674794673919678e-01
-1.072701346129179001e-02
-2.301760315895080566e-01
1.211075633764266968e-01
-1.860710978507995605e-02
9.828008711338043213e-02
6.994163990020751953e-02
1.828754246234893799e-01
-7.567244768142700195e-02
-3.458682447671890259e-02
-1.019081473350524902e-01
-2.295806631445884705e-02
-1.895432174205780029e-02
1.003760099411010742e-01
1.291012018918991089e-01
1.555349081754684448e-01
-8.090074360370635986e-02
-2.527907788753509521e-01
1.480331569910049438e-01
-1.145441159605979919e-01
-2.209735661745071411e-01
1.328322738409042358e-01
1.108618155121803284e-01
1.764822602272033691e-01
-1.025339812040328979e-01
-1.030134223401546478e-02
-8.796149492263793945e-02
-2.097704559564590454e-01
-1.083650663495063782e-01
1.565536707639694214e-01
2.207832932472229004e-01
1.476079374551773071e-01
-7.978656888008117676e-02
-2.477177977561950684e-01
8.443731069564819336e-02
-3.269170597195625305e-02
7.843966037034988403e-02
-3.828666359186172485e-02
-2.338460385799407959e-01
1.286920607089996338e-01
2.164471335709095001e-02
-9.607579559087753296e-02
-1.523497998714447021e-01
1.832574903964996338e-01
-4.231385514140129089e-02
-1.215948536992073059e-01
-6.381761282682418823e-02
-2.834502160549163818e-01
-2.790585905313491821e-02
-1.212339103221893311e-01
-1.029627248644828796e-01
-2.229767143726348877e-01
-7.177847623825073242e-02
-1.460302174091339111e-01
-1.286449283361434937e-01
1.069355681538581848e-01
5.456468835473060608e-02
3.184783160686492920e-01
8.203271031379699707e-02
3.379231318831443787e-02
-2.408737130463123322e-02
1.341426372528076172e-01
1.171164587140083313e-01
4.529640823602676392e-02
9.921371191740036011e-02
-9.310898184776306152e-02
2.106505259871482849e-02
-1.766671985387802124e-01
-3.235233724117279053e-01
1.628364552743732929e-04
2.690232396125793457e-01
-3.441857546567916870e-02
-6.226906180381774902e-02
-5.354897584766149521e-03
-1.104525178670883179e-01
-1.315857470035552979e-01
6.572330603376030922e-04
1.127065345644950867e-01
-7.097965478897094727e-02
1.081819236278533936e-01
-1.070336848497390747e-01
1.709777712821960449e-01
-9.622678905725479126e-02
-1.179574280977249146e-01
3.735370934009552002e-03
2.386392802000045776e-01
1.453267876058816910e-02
-7.949176430702209473e-02
1.225882619619369507e-01
1.023167297244071960e-01
3.171998634934425354e-02
1.253192424774169922e-01
2.078337520360946655e-01
1.447893828153610229e-01
-6.111764907836914062e-02
-1.307814195752143860e-02
2.347237020730972290e-01
-9.203426539897918701e-02
2.288193702697753906e-01
1.277953237295150757e-01
2.341903895139694214e-01
-4.341967776417732239e-02
-5.401672795414924622e-02
-9.414011240005493164e-02
-1.343020517379045486e-02
-9.274381399154663086e-02
-2.158954292535781860e-01
-2.732915282249450684e-01
-1.261347532272338867e-01
-6.193958595395088196e-02
5.747986957430839539e-02
3.084025382995605469e-01
-1.791820628568530083e-03
3.109764754772186279e-01
3.811933696269989014e-01
2.563666701316833496e-01
1.540123224258422852e-01
-1.307618468999862671e-01
-3.005224466323852539e-01
-7.505995035171508789e-02
-1.834271475672721863e-02
2.619851231575012207e-01
4.060268998146057129e-01
2.780875936150550842e-02
1.958851665258407593e-01
9.848157316446304321e-02
8.375613391399383545e-02
-2.353639155626296997e-02
1.887900680303573608e-01
1.350170522928237915e-01
1.824225634336471558e-01
-5.489949136972427368e-02
1.141000241041183472e-01
9.648667648434638977e-03
-2.028112113475799561e-01
-4.129924997687339783e-02
-2.507152967154979706e-03
1.253584325313568115e-01
-5.009526014328002930e-02
-1.260231137275695801e-01
2.944670990109443665e-02
-9.262624382972717285e-02
-2.085468173027038574e-01
-1.935173869132995605e-01
2.461151592433452606e-02
-1.655890792608261108e-01
-4.984180256724357605e-02
1.381408274173736572e-01
8.963102102279663086e-02
-2.516628801822662354e-01
-1.442070007324218750e-01
-1.885014176368713379e-01
2.833742499351501465e-01
1.139436587691307068e-01
-4.576251655817031860e-02
-8.285944908857345581e-02
-2.372748851776123047e-01
-7.173620164394378662e-02
1.546953320503234863e-01
2.655082754790782928e-02
2.543971836566925049e-01
2.685245871543884277e-01
2.035050094127655029e-01
1.698783338069915771e-01
-4.916086047887802124e-02
-1.850753128528594971e-01
-1.409966647624969482e-01
-9.038050472736358643e-02
-2.677917480468750000e-01
2.068427205085754395e-02
1.198326721787452698e-01
9.053613990545272827e-03
9.467571973800659180e-03
-2.890536785125732422e-01
2.134347110986709595e-01
-1.657252013683319092e-01
-1.459093987941741943e-01
-1.155479848384857178e-01
-1.052607148885726929e-01
2.235986664891242981e-02
-1.128283441066741943e-01
-3.507973626255989075e-02
-7.935070246458053589e-02
3.089103102684020996e-01
5.099624022841453552e-02
1.360614970326423645e-02
6.332775950431823730e-02
2.188528627157211304e-01
1.632435321807861328e-01
-1.434826850891113281e-01
-2.636181190609931946e-03
1.407155953347682953e-02
-2.133912779390811920e-02
8.407632261514663696e-02
1.702239513397216797e-01
3.650675415992736816e-01
4.919298365712165833e-02
-1.239053606986999512e-01
-1.270194798707962036e-01
-1.957025378942489624e-01
2.089748084545135498e-01
1.774001717567443848e-01
2.141102850437164307e-01
4.495712742209434509e-02
-2.437327243387699127e-02
-5.429576337337493896e-02
-7.902503758668899536e-02
5.631055682897567749e-02
2.416722290217876434e-02
-8.588659577071666718e-03
-8.434521034359931946e-03
1.306561231613159180e-01
1.867037713527679443e-01
-5.117383226752281189e-02
-1.266844272613525391e-01
8.185122162103652954e-02
8.683522790670394897e-02
7.472882512956857681e-03
1.666934937238693237e-01
1.026745736598968506e-01
1.262574493885040283e-01
1.970644295215606689e-02
1.882553249597549438e-01
1.852146834135055542e-01
2.831805348396301270e-01
2.810628712177276611e-01
3.839080929756164551e-01
2.313589751720428467e-01
2.670803666114807129e-01
-1.021843180060386658e-01
-2.482682615518569946e-01
-3.945146799087524414e-01
-2.444249838590621948e-01
-7.578606158494949341e-02
-8.496608585119247437e-02
-1.878451555967330933e-01
-2.924008071422576904e-01
-4.056307375431060791e-01
-6.080289185047149658e-02
-2.421023249626159668e-01
-1.472935229539871216e-01
2.604275643825531006e-01
-9.797059930860996246e-03
1.173914503306150436e-02
-2.876093089580535889e-01
-9.129984676837921143e-02
-4.460076242685317993e-02
-9.027923643589019775e-02
3.898729383945465088e-02
-1.604348421096801758e-01
-1.658190786838531494e-01
-6.810279935598373413e-02
1.258735265582799911e-02
2.981073036789894104e-02
2.255502939224243164e-01
4.061302542686462402e-02
3.226982951164245605e-01
-2.374586276710033417e-02
3.060855343937873840e-02
-9.344322979450225830e-02
-1.009342297911643982e-01
-2.000295966863632202e-01
-1.745640039443969727e-01
2.537147700786590576e-01
4.914757609367370605e-02
1.809624284505844116e-01
3.219980001449584961e-01
3.508903458714485168e-02
-2.323821932077407837e-02
-3.769891560077667236e-01
5.123563483357429504e-02
2.826675176620483398e-01
1.537557840347290039e-01
2.750969827175140381e-01
2.134189754724502563e-01
2.409185320138931274e-01
-8.169224113225936890e-02
-2.785092592239379883e-01
-9.055854380130767822e-02
1.420160382986068726e-01
2.792490720748901367e-01
3.605995774269104004e-01
3.980312049388885498e-01
1.960093677043914795e-01
1.906164139509201050e-01
-3.036451637744903564e-01
-4.534443095326423645e-02
2.506324648857116699e-01
4.965435266494750977e-01
3.815879225730895996e-01
5.733534693717956543e-01
5.905296802520751953e-01
1.595636010169982910e-01
-1.958439499139785767e-01
-2.687757015228271484e-01
-6.213511526584625244e-02
6.155451759696006775e-02
9.412495791912078857e-02
5.072396248579025269e-02
3.051216527819633484e-02
-8.558690547943115234e-02
-2.340395897626876831e-01
-8.767965249717235565e-03
4.637793451547622681e-02
3.378605097532272339e-02
-7.013664394617080688e-02
2.722586505115032196e-02
-8.315295912325382233e-03
2.334273979067802429e-02
2.068506926298141479e-02
-7.649444043636322021e-02
2.006796188652515411e-02
5.653206259012222290e-03
-5.957478657364845276e-03
-1.577465981245040894e-02
3.997993469238281250e-02
-4.562728106975555420e-03
-4.968766123056411743e-03
-6.314542889595031738e-02
3.710286319255828857e-02
7.532391697168350220e-03
-2.587793394923210144e-02
-3.013843856751918793e-02
-2.412626333534717560e-02
-1.981962844729423523e-02
-1.323703955858945847e-02
-1.220197603106498718e-02
-4.552503675222396851e-02
3.505747765302658081e-02
-2.017969265580177307e-02
-2.083372697234153748e-02
-4.901421442627906799e-02
-3.515797108411788940e-02
-1.818925701081752777e-02
3.280812874436378479e-03
-3.795232251286506653e-02
-9.803813882172107697e-03
2.256427891552448273e-03
-1.841199956834316254e-02
-2.121167257428169250e-03
-4.266643896698951721e-02
-5.201879143714904785e-02
-4.111094027757644653e-02
-4.814713820815086365e-02
3.752689110115170479e-03
-1.943653076887130737e-02
-3.770525753498077393e-02
8.218135684728622437e-03
-4.972685128450393677e-02
-1.453478261828422546e-02
-4.947558417916297913e-02
-2.687058597803115845e-02
-1.804802194237709045e-02
3.895126283168792725e-02
-3.029477037489414215e-02
1.500372868031263351e-02
-7.506253197789192200e-03
-8.868832141160964966e-03
-4.420405626296997070e-02
-9.940160438418388367e-03
-3.424683958292007446e-02
-3.359946608543395996e-02
-1.899417862296104431e-02
1.507644169032573700e-02
-1.563519984483718872e-02
-2.751041203737258911e-03
5.108866095542907715e-01
1.326110363006591797e-01
1.347022354602813721e-01
-5.274273827672004700e-02
4.254167154431343079e-02
1.105703637003898621e-01
2.255103141069412231e-01
-1.789737790822982788e-01
8.984955027699470520e-03
-5.011855065822601318e-02
8.101025596261024475e-03
-1.281941682100296021e-01
2.990972101688385010e-01
1.774406880140304565e-01
-7.241877168416976929e-02
-4.455655068159103394e-02
3.891784846782684326e-01
-1.070083677768707275e-01
-1.888125389814376831e-02
4.916899278759956360e-02
3.558771908283233643e-01
-7.361595518887042999e-03
1.776329129934310913e-01
1.637087017297744751e-01
4.422806203365325928e-02
1.511413455009460449e-01
2.306815981864929199e-02
4.430935904383659363e-02
1.229223906993865967e-01
-1.264904886484146118e-01
-1.605080515146255493e-01
-3.079915884882211685e-03
8.463782072067260742e-02
1.353151798248291016e-01
-1.086579263210296631e-01
1.635237038135528564e-01
-5.151217803359031677e-03
-2.542671980336308479e-03
1.424882262945175171e-01
-1.485464125871658325e-01
7.049339264631271362e-02
1.606242954730987549e-01
1.636756658554077148e-01
-1.029910445213317871e-01
8.954490721225738525e-02
-1.933857500553131104e-01
-1.008143424987792969e-01
-2.542768716812133789e-01
-1.006054878234863281e-01
-4.587208852171897888e-02
-2.927503287792205811e-01
-4.081995040178298950e-02
-2.253515571355819702e-01
-9.085176885128021240e-02
3.801567479968070984e-02
-2.557637691497802734e-01
1.188725605607032776e-01
4.507114738225936890e-02
-9.533347189426422119e-02
2.759448625147342682e-02
-3.584095835685729980e-02
-7.116246968507766724e-02
-1.605341732501983643e-01
3.738014725968241692e-03
1.798177137970924377e-02
1.065228786319494247e-02
1.997499912977218628e-01
-6.671743094921112061e-02
1.084450110793113708e-01
-2.222905494272708893e-02
1.523578763008117676e-01
4.115093126893043518e-02
-8.127915114164352417e-02
-9.871959686279296875e-02
-1.706586182117462158e-01
3.191692754626274109e-03
2.059334069490432739e-01
1.808825880289077759e-01
6.623171269893646240e-02
-1.618478298187255859e-01
-6.854991614818572998e-02
-1.974363327026367188e-01
-2.443531006574630737e-01
1.907546371221542358e-01
8.943969011306762695e-02
-1.661096699535846710e-02
-2.400541864335536957e-02
-4.223022460937500000e-01
-6.402490288019180298e-02
1.176561266183853149e-01
8.851534128189086914e-02
2.358543872833251953e-02
-7.463258504867553711e-02
-6.613884866237640381e-02
5.719012394547462463e-02
-2.253741770982742310e-01
-3.125275671482086182e-01
-1.139640212059020996e-01
7.969181984663009644e-02
-7.855191826820373535e-02
-1.429189369082450867e-02
7.361003756523132324e-02
-1.953220218420028687e-01
-5.612640827894210815e-02
-1.732010692358016968e-01
-1.183554753661155701e-01
9.960453212261199951e-02
-2.718847095966339111e-01
6.487479899078607559e-03
-1.605987399816513062e-01
-1.874166354537010193e-02
-8.309514075517654419e-02
-4.429113469086587429e-04
-4.390482902526855469e-01
-8.829840272665023804e-02
-3.484382107853889465e-02
-3.384826481342315674e-01
-7.434355020523071289e-01
-4.749203324317932129e-01
1.348503306508064270e-02
2.003564834594726562e-01
1.195992715656757355e-02
-4.154079779982566833e-02
-1.399946212768554688e-01
3.738353773951530457e-02
-1.321476846933364868e-01
4.804656282067298889e-02
2.001284249126911163e-02
7.118204236030578613e-02
5.207236111164093018e-02
3.018090687692165375e-02
1.662654429674148560e-02
-8.096464723348617554e-02
2.074073255062103271e-02
-3.665195778012275696e-02
-1.596517860889434814e-01
-7.723288238048553467e-02
2.473978549242019653e-01
1.566185057163238525e-01
1.741205006837844849e-01
2.465377897024154663e-01
9.316036850214004517e-02
-1.278084069490432739e-01
-9.293907880783081055e-02
9.304997324943542480e-02
1.249694153666496277e-01
1.992882043123245239e-01
6.916826963424682617e-02
1.308525502681732178e-01
4.817562177777290344e-02
-8.149373531341552734e-02
-2.359363734722137451e-01
-7.989115267992019653e-02
1.188786178827285767e-01
1.870654672384262085e-01
1.381167769432067871e-01
-7.648034021258354187e-03
1.727437376976013184e-01
3.333048522472381592e-01
-2.785802185535430908e-01
-1.584660857915878296e-01
5.953215062618255615e-02
1.976828724145889282e-01
1.386279799044132233e-02
2.298063784837722778e-01
5.351694673299789429e-02
3.955803513526916504e-01
-8.881203830242156982e-02
-4.129241704940795898e-01
3.153190910816192627e-01
3.416827619075775146e-01
6.425003707408905029e-02
-9.271425008773803711e-02
2.228844463825225830e-01
3.501873910427093506e-01
5.079352483153343201e-02
1.213045343756675720e-01
3.595222532749176025e-02
-4.542371723800897598e-03
-3.985301405191421509e-02
5.763451755046844482e-02
2.546095475554466248e-02
1.105890944600105286e-01
2.014939934015274048e-01
-2.087752372026443481e-01
-9.876704216003417969e-02
-2.873508036136627197e-01
-2.558170817792415619e-02
2.675117552280426025e-01
-9.597689658403396606e-02
-6.731489300727844238e-02
6.896156072616577148e-02
6.036807969212532043e-02
4.588647559285163879e-02
2.606675922870635986e-01
2.294326871633529663e-01
7.691203802824020386e-02
1.478061378002166748e-01
-1.118446439504623413e-01
-1.985148936510086060e-01
-4.474578797817230225e-02
1.310261990875005722e-02
-1.351451575756072998e-01
2.259690314531326294e-02
-4.653912410140037537e-02
-1.660139858722686768e-01
-1.015283167362213135e-01
3.514274582266807556e-02
1.086381524801254272e-01
-1.132134720683097839e-02
-1.372361332178115845e-01
-3.135937154293060303e-01
-3.894900977611541748e-01
-1.279131919145584106e-01
7.662242650985717773e-02
1.733699142932891846e-01
1.790994256734848022e-01
1.777181215584278107e-02
-8.778768032789230347e-02
-3.203220665454864502e-01
-3.055994212627410889e-01
-5.741479992866516113e-02
-2.528098821640014648e-01
1.017097532749176025e-01
1.857407093048095703e-01
1.357391104102134705e-02
-4.684444516897201538e-02
-1.497621089220046997e-01
-1.973221451044082642e-01
-8.055300265550613403e-02
9.966577403247356415e-03
6.640396080911159515e-03
2.138272970914840698e-01
-1.464682631194591522e-03
-8.668284863233566284e-02
-2.273290902376174927e-01
-1.565635651350021362e-01
-1.132914498448371887e-01
-1.003641486167907715e-01
-1.728136986494064331e-01
1.214762032032012939e-01
-1.017625331878662109e-01
-4.485237598419189453e-02
-7.127229124307632446e-02
-1.696784496307373047e-01
-5.935635790228843689e-02
6.468529254198074341e-02
-1.403730511665344238e-01
2.929266728460788727e-02
5.737251415848731995e-02
-3.522702306509017944e-02
1.415091902017593384e-01
-2.238364331424236298e-02
-2.261746972799301147e-01
1.297642439603805542e-01
1.713385805487632751e-02
2.736295387148857117e-02
-1.450584381818771362e-01
-1.445634365081787109e-01
3.182552158832550049e-01
2.349838241934776306e-02
-2.151707708835601807e-01
-1.335181742906570435e-01
8.352807164192199707e-02
-2.062857151031494141e-01
-1.122550666332244873e-01
1.417674422264099121e-01
7.598315924406051636e-02
-1.006273031234741211e-01
1.161760166287422180e-01
-3.321330994367599487e-03
1.009263768792152405e-01
-9.299330413341522217e-02
9.648654609918594360e-02
2.056578639894723892e-03
5.837044492363929749e-02
4.813933372497558594e-02
5.167309660464525223e-03
1.400632113218307495e-01
-9.391184896230697632e-02
1.832968741655349731e-01
4.102954268455505371e-02
-4.210359975695610046e-02
1.195427477359771729e-01
1.425270140171051025e-01
2.520435452461242676e-01
2.075749635696411133e-01
4.991992563009262085e-02
-1.187753677368164062e-01
6.617213040590286255e-02
1.780845820903778076e-01
2.394059449434280396e-01
5.849350988864898682e-02
-9.807640314102172852e-02
1.426535099744796753e-01
4.364996775984764099e-02
-1.903203129768371582e-01
5.531171336770057678e-03
-1.280315071344375610e-01
-1.167176291346549988e-01
-2.631484717130661011e-02
7.652522064745426178e-03
2.797001004219055176e-01
-4.072162881493568420e-02
-1.859262585639953613e-01
1.908066719770431519e-01
2.900378964841365814e-02
-1.174810901284217834e-01
-9.405369311571121216e-02
-2.613224089145660400e-01
-1.303991675376892090e-01
-8.904755860567092896e-02
-1.917877942323684692e-01
-1.827827841043472290e-01
-2.161560803651809692e-01
-8.591324836015701294e-02
-6.002754345536231995e-02
-4.584532231092453003e-03
-1.638302505016326904e-01
-1.118263453245162964e-01
-3.823734447360038757e-02
9.768432937562465668e-03
-1.070059165358543396e-01
-5.094685032963752747e-02
-4.362493753433227539e-02
-5.075080320239067078e-02
1.854602694511413574e-01
2.499545067548751831e-01
2.764111161231994629e-01
-2.965278178453445435e-02
-1.638991385698318481e-01
-8.974193036556243896e-02
-1.214652135968208313e-01
-2.819721400737762451e-02
-1.120799705386161804e-01
1.174382492899894714e-01
-2.458499073982238770e-01
-8.796657621860504150e-02
1.619869843125343323e-02
1.643869467079639435e-02
5.729146301746368408e-02
6.391061842441558838e-02
3.984979912638664246e-02
3.181693702936172485e-02
-3.840379118919372559e-01
-2.618482708930969238e-01
1.327261030673980713e-01
8.782415837049484253e-02
1.012170240283012390e-01
1.820394843816757202e-01
-1.532481759786605835e-01
-4.035871326923370361e-01
-3.687412142753601074e-01
-1.556950211524963379e-01
-4.850368946790695190e-02
-1.536574959754943848e-01
1.575316190719604492e-01
-5.326649919152259827e-02
-2.493368536233901978e-01
-2.765250504016876221e-01
-3.891409337520599365e-01
1.247352585196495056e-01
-2.312995791435241699e-01
1.066415607929229736e-01
9.636217146180570126e-04
1.267210114747285843e-03
-8.165665715932846069e-02
-5.031184554100036621e-01
-9.753336757421493530e-02
-1.765197515487670898e-01
-5.479797348380088806e-02
1.399754732847213745e-01
2.566790580749511719e-01
2.345659732818603516e-01
-3.654041886329650879e-02
-3.443808257579803467e-01
-4.714847505092620850e-01
2.370793819427490234e-01
3.315786719322204590e-01
3.035719692707061768e-01
2.872067391872406006e-01
3.012056648731231689e-01
3.754156529903411865e-01
-1.349644362926483154e-02
-2.102015167474746704e-02
5.394576862454414368e-02
3.569629490375518799e-01
1.846268028020858765e-02
2.653767727315425873e-02
2.891923114657402039e-02
2.630506455898284912e-01
9.927046298980712891e-02
4.453555867075920105e-02
-6.346780806779861450e-02
1.947114057838916779e-02
5.193943157792091370e-02
1.178702525794506073e-02
9.540098160505294800e-02
-1.136052142828702927e-02
6.397087126970291138e-02
-1.056290864944458008e-01
3.479604721069335938e-01
1.783289015293121338e-02
1.169616058468818665e-01
-1.213883683085441589e-01
1.004198119044303894e-01
2.527784109115600586e-01
2.884614467620849609e-01
1.949698776006698608e-01
8.481945842504501343e-03
-1.529801040887832642e-01
-2.822037041187286377e-01
-3.686989545822143555e-01
-2.727944850921630859e-01
-2.657143771648406982e-01
-2.413286864757537842e-01
1.178131252527236938e-01
1.041499078273773193e-01
-3.450171351432800293e-01
-2.777609229087829590e-02
-2.772980034351348877e-01
-3.472935557365417480e-01
-2.752490341663360596e-01
-1.987550556659698486e-01
-2.963013947010040283e-01
-5.848023667931556702e-02
6.913819909095764160e-02
-2.543817460536956787e-01
-3.818677067756652832e-01
1.072822660207748413e-01
-1.802163720130920410e-01
5.062350258231163025e-02
-2.305645048618316650e-01
-1.927827894687652588e-01
-2.456145137548446655e-01
1.065238490700721741e-01
-3.470930457115173340e-01
7.811414077877998352e-03
1.036566793918609619e-01
-1.119505688548088074e-01
-1.761832647025585175e-02
7.339835166931152344e-02
1.664960570633411407e-02
-3.396448791027069092e-01
4.705304801464080811e-01
1.573759615421295166e-01
4.095818996429443359e-01
-8.450565338134765625e-01
-6.687747687101364136e-02
-1.420188248157501221e-01
1.820163130760192871e-01
-5.268208310008049011e-02
-1.733113825321197510e-01
-6.373278796672821045e-02
-1.239159181714057922e-01
2.524517476558685303e-01
-1.782990843057632446e-01
-7.116319984197616577e-02
3.040237538516521454e-02
-2.740595936775207520e-01
-6.210603713989257812e-01
-2.862223982810974121e-01
-2.780709862709045410e-01
-5.032461136579513550e-02
-1.546512693166732788e-01
-1.095067188143730164e-01
2.261162251234054565e-01
5.511938035488128662e-02
-2.084830403327941895e-01
-1.899411380290985107e-01
-4.511203616857528687e-02
5.584620311856269836e-02
-1.106652393937110901e-01
-2.000656276941299438e-01
2.451998926699161530e-02
-3.889048472046852112e-02
-8.690755814313888550e-02
-1.960668563842773438e-01
-2.607694864273071289e-01
1.765432953834533691e-01
3.231445252895355225e-01
-5.980088189244270325e-02
2.469243705272674561e-01
-7.048233598470687866e-02
1.895192451775074005e-02
7.356010377407073975e-02
2.217998355627059937e-01
-1.321885138750076294e-01
6.497071683406829834e-02
-8.593592792749404907e-02
6.503259390592575073e-02
2.623865604400634766e-01
3.632561862468719482e-01
1.706502139568328857e-01
3.476432561874389648e-01
1.015695407986640930e-01
7.192894071340560913e-02
3.716878965497016907e-02
-3.235636353492736816e-01
7.976466417312622070e-02
1.100925654172897339e-01
2.226395606994628906e-01
9.113579243421554565e-02
9.520990401506423950e-02
-3.626370057463645935e-02
3.810782134532928467e-01
2.496296316385269165e-01
1.978822052478790283e-01
1.880118697881698608e-01
1.077336817979812622e-01
4.058283269405364990e-01
5.453860759735107422e-01
-2.687782645225524902e-01
-4.360957443714141846e-02
-2.777015231549739838e-02
-1.795874536037445068e-02
3.368849307298660278e-02
-5.151059105992317200e-02
-2.622919976711273193e-01
-1.152685731649398804e-01
6.082661077380180359e-02
-2.410176247358322144e-01
4.406630061566829681e-03
-1.018979400396347046e-01
-1.749463826417922974e-01
7.212252914905548096e-02
-1.771413981914520264e-01
-1.581738442182540894e-01
9.112651459872722626e-03
-4.139170423150062561e-02
-1.300653070211410522e-01
-1.871696710586547852e-01
-1.987271010875701904e-01
-1.286967843770980835e-02
-2.677828371524810791e-01
9.751520305871963501e-02
-5.677883327007293701e-02
-6.199795380234718323e-02
-2.456382513046264648e-01
-3.031302094459533691e-01
-1.487776339054107666e-01
-1.507207304239273071e-01
-7.331728190183639526e-02
1.841669157147407532e-02
-6.929604709148406982e-02
-6.534483283758163452e-02
1.117722243070602417e-01
-1.085280552506446838e-01
-2.998736128211021423e-02
3.062734007835388184e-01
-1.468018740415573120e-01
2.862508594989776611e-02
-4.814330637454986572e-01
-6.113970875740051270e-01
2.444377839565277100e-01
8.650998584926128387e-03
2.884505987167358398e-01
3.638420104980468750e-01
-9.245540201663970947e-02
-1.247273758053779602e-01
-9.295769035816192627e-02
-1.466466784477233887e-01
8.012150973081588745e-02
-7.151158154010772705e-02
5.977217108011245728e-02
2.851537168025970459e-01
1.239726692438125610e-01
-1.847898960113525391e-01
-9.476391598582267761e-03
-1.101357340812683105e-01
-1.564526259899139404e-01
1.537390500307083130e-01
-6.887503713369369507e-02
2.521129883825778961e-02
5.668126419186592102e-02
1.033734232187271118e-01
-1.082566827535629272e-01
-1.335669159889221191e-01
5.103011056780815125e-02
-6.688897265121340752e-04
7.242813706398010254e-02
-2.477469108998775482e-02
-2.494265139102935791e-02
3.207875490188598633e-01
3.297112137079238892e-02
-8.294001966714859009e-02
6.855754554271697998e-02
2.078249305486679077e-02
-2.131120413541793823e-01
-2.580024898052215576e-01
-4.503272473812103271e-01
1.318251937627792358e-01
6.199307367205619812e-02
1.765277683734893799e-01
1.347430050373077393e-01
-5.618251115083694458e-02
-2.068480700254440308e-01
-2.826661765575408936e-01
2.987717092037200928e-02
1.525840163230895996e-01
2.094731628894805908e-01
1.869785189628601074e-01
-1.284701228141784668e-01
-1.108581870794296265e-01
2.017003446817398071e-01
4.068836197257041931e-02
-1.099023967981338501e-01
2.025448484346270561e-03
1.661772876977920532e-01
1.772897243499755859e-01
8.490557968616485596e-02
1.255281269550323486e-01
-3.589066490530967712e-02
3.295980393886566162e-02
2.816433906555175781e-01
-3.155320137739181519e-02
-6.889780610799789429e-02
2.755922675132751465e-01
5.278015732765197754e-01
1.451108753681182861e-01
2.044890969991683960e-01
1.478893123567104340e-02
1.568410396575927734e-01
2.100308835506439209e-01
-1.189788579940795898e-01
8.860997110605239868e-02
9.718360751867294312e-02
1.077121272683143616e-01
1.241572946310043335e-01
1.067761704325675964e-01
1.503810435533523560e-01
-7.050449401140213013e-02
6.026410963386297226e-03
3.328593671321868896e-01
-6.728629022836685181e-02
7.344526052474975586e-02
-1.716282665729522705e-01
3.623672574758529663e-02
6.951156258583068848e-02
-1.718146055936813354e-01
-1.114769279956817627e-01
1.701519191265106201e-01
-3.204617202281951904e-01
-3.003621995449066162e-01
2.762233018875122070e-01
1.565846800804138184e-01
-8.315460756421089172e-03
-2.338177710771560669e-01
-8.577855676412582397e-02
-2.274685651063919067e-01
-2.915296517312526703e-02
-7.761108875274658203e-02
-1.301267445087432861e-01
1.130670234560966492e-01
-5.990253016352653503e-02
3.616742789745330811e-01
9.741784632205963135e-02
-3.360669687390327454e-02
2.575488016009330750e-02
-1.159710735082626343e-01
-9.866868704557418823e-02
1.137684211134910583e-01
1.628852039575576782e-01
2.192527502775192261e-01
-1.231648102402687073e-01
-6.297265738248825073e-02
4.088559746742248535e-02
7.866382598876953125e-02
-9.752125293016433716e-02
1.179827079176902771e-01
5.115161463618278503e-02
1.240978837013244629e-01
-1.270804554224014282e-02
1.341653466224670410e-01
-5.520345293916761875e-04
2.266274094581604004e-01
2.430635690689086914e-01
6.693887710571289062e-02
2.058619111776351929e-01
4.696876928210258484e-02
-4.154974967241287231e-02
1.123443394899368286e-01
-1.486182957887649536e-01
1.396018564701080322e-01
5.207331851124763489e-02
6.257128715515136719e-02
1.253064908087253571e-02
6.438229233026504517e-02
6.486796587705612183e-02
6.558024883270263672e-02
1.171402540057897568e-02
4.942475818097591400e-03
2.238632924854755402e-02
-1.424806267023086548e-01
3.419914469122886658e-02
6.763308495283126831e-02
-1.879930198192596436e-01
3.267787694931030273e-01
-2.274278849363327026e-01
1.952834129333496094e-01
-2.730731666088104248e-01
-6.994343549013137817e-02
-2.366541028022766113e-01
2.729221712797880173e-03
-1.627243906259536743e-01
7.979190349578857422e-02
-3.693988174200057983e-02
1.332148313522338867e-01
1.127474829554557800e-01
-3.512976691126823425e-02
-3.489687293767929077e-02
3.169513940811157227e-01
2.872592508792877197e-01
6.630715727806091309e-02
-2.734692208468914032e-02
5.191299319267272949e-02
-6.816717237234115601e-02
-2.468864321708679199e-01
1.056145280599594116e-01
2.528955042362213135e-01
1.827875673770904541e-01
1.524115353822708130e-02
-1.641671359539031982e-01
6.511683762073516846e-02
-1.702755391597747803e-01
-2.093758285045623779e-01
1.672650128602981567e-01
-3.458327427506446838e-02
2.105969637632369995e-01
-4.325879737734794617e-02
-5.424571223556995392e-03
4.405114799737930298e-02
-1.025773957371711731e-01
8.301116526126861572e-02
1.133727878332138062e-01
3.441040590405464172e-02
1.819297671318054199e-01
2.000346183776855469e-01
-7.468550652265548706e-02
-2.198559790849685669e-02
-2.021486014127731323e-01
3.193497285246849060e-02
8.069922775030136108e-02
1.080436408519744873e-01
-9.570549428462982178e-02
2.013434655964374542e-02
-3.729316890239715576e-01
-1.921430975198745728e-01
-5.991753190755844116e-02
-2.960878796875476837e-02
1.549584120512008667e-01
-1.710696145892143250e-02
5.933483317494392395e-02
1.054760720580816269e-02
-1.854666471481323242e-01
-4.069872200489044189e-01
2.123869769275188446e-02
-2.460270561277866364e-02
-6.729374080896377563e-02
1.945668160915374756e-01
-4.682592302560806274e-02
2.315148897469043732e-02
4.903808236122131348e-02
4.228885099291801453e-02
9.817542135715484619e-02
7.993920147418975830e-02
1.288423240184783936e-01
1.036161184310913086e-01
1.549233496189117432e-01
1.213442236185073853e-01
1.885189861059188843e-01
2.405331097543239594e-02
1.367867738008499146e-01
2.694492936134338379e-01
2.443325966596603394e-01
2.005298882722854614e-01
1.780066788196563721e-01
-3.378241509199142456e-02
1.380486786365509033e-01
3.133821114897727966e-02
-1.424182653427124023e-01
-1.391956657171249390e-01
-1.236936748027801514e-01
1.392220109701156616e-01
5.535629391670227051e-02
-8.737655729055404663e-02
2.305058389902114868e-02
-2.148615717887878418e-01
-1.485041379928588867e-01
1.103097200393676758e-02
-4.878747090697288513e-02
1.968281865119934082e-01
5.040793493390083313e-02
-1.120175942778587341e-01
1.240451857447624207e-01
-1.990377008914947510e-01
-1.125225275754928589e-01
-1.546143181622028351e-02
1.577728986740112305e-02
4.680249467492103577e-02
8.682752400636672974e-02
-1.164770424365997314e-01
-1.440534740686416626e-01
2.754296548664569855e-02
-1.589120775461196899e-01
-2.520725727081298828e-01
-5.724116787314414978e-02
9.562309831380844116e-02
-1.736145280301570892e-02
-2.316299378871917725e-01
-2.282117307186126709e-01
-1.646764203906059265e-02
1.013634027913212776e-04
-3.272336721420288086e-01
-2.015875726938247681e-01
2.409752458333969116e-01
-3.029195666313171387e-01
-1.532868146896362305e-01
-5.428382158279418945e-01
-1.485212743282318115e-01
-2.028784155845642090e-01
-6.154393032193183899e-02
-2.378572225570678711e-01
-4.807901382446289062e-02
5.745387170463800430e-03
4.416242707520723343e-03
-8.937316387891769409e-02
4.913099575787782669e-03
-1.803020387887954712e-01
-1.087809503078460693e-01
2.647125534713268280e-02
6.615061312913894653e-02
-1.955628395080566406e-02
6.231146678328514099e-02
-1.812940463423728943e-02
1.170808076858520508e-01
5.750538781285285950e-02
-5.397367849946022034e-02
-4.676914960145950317e-02
9.870188683271408081e-02
-8.845645189285278320e-02
-2.365908175706863403e-01
6.527370959520339966e-02
-1.284552663564682007e-01
-6.373593211174011230e-02
8.451317250728607178e-02
1.027724519371986389e-01
2.869941890239715576e-01
-9.240843355655670166e-03
